tree
version=v4
num_class=5
num_tree_per_iteration=5
label_index=0
max_feature_idx=6
objective=multiclass num_class:5
feature_names=flex_sum acc_x_sum acc_y_sum acc_z_sum gyro_x_sum gyro_y_sum gyro_z_sum
feature_infos=[5:125] [-247.47186619873045:-110.03271989746095] [-108.70872637939455:159.77225938720704] [-164.49841346435548:170.43842778320308] [-720.51145038167931:682.19847328244248] [-924.84732824427499:847.81679389312956] [-994.6564885496183:745.61068702290083]
tree_sizes=1234 549 1145 649 940 1604 1203 1284 1091 1501 1720 1201 1184 1312 1395 1721 1191 1385 1090 1399 1294 1303 1386 1302 1404 1291 1303 1291 1091 1615 1506 1199 1396 1312 1293 1507 1195 1288 1091 1402 1498 1200 1394 1309 1403 1394 1309 1388 1312 1617 1506 1306 1284 1311 1508 1507 1090 1390 1309 1506 1506 1308 1500 1095 1607 1504 1092 1502 1095 1502 1507 1200 1502 1311 1612 1508 1307 1499 1090 1509 1509 985 1502 1307 1606 1610 1196 1498 1089 1618 1616 1093 1501 1096 1509 1394 1195 1395 1095 1509 1511 986 1296 1090 1612 1620 1307 1613 1097 1615 1630 987 1405 1095 1509 1630 1199 1608 1098 1618 1526 986 1398 986 1613 1519 985 1403 982 1615 1521 1204 1402 1412 1515 1525 991 1404 989 1613 1529 989 1510 1417 1721 1526 990 1508 989 1418 1636 1200 1504 1421 1720 1633 989 1400 992 1722 1635 991 1619 988 1608 1635 1088 1402 1318 1620 1634 993 1614 989 1721 1525 993 1623 991 1622 1527 990 1413 1319 1714 1641 1095 1617 991 1623 1528 988 1514 993 1620 1643 987 1623 991 1722 1635 988 1621 1425 1517 1641 989 1401 993 1624 1522 989 1513 1423 1515 1644 986 1522 994 1628 1645 990 1507 992 1731 1641 988 1637 996 1734 1637 990 1527 1211 1635 1531 990 1524 998 1738 1648 989 1525 993 1412 1527 990 1414 995 1411 1650 990 1524 1108 1738 1531 991 1306 999 1747 1422 990 1747 1108 1638 1423 991 1308 1002 1748 1427 991 1314 1109 1744 1427 992 1198 997 1522 1431 992 1303 1106 1633 1427 992 1527 1003 1424 1434 994 1296 1108 1639 1322 993 1419 1000 1425 1753 1091 1535 1003 1739 1536 1101 1541 1110 1431 1537 1096 1420 998 1750 1528 1096 1539 1436 1748 1538 1101 1420 1446 1427 1751 1099 1654 1447 1433 1535 1100 1753 1448 1631 1542 1101 1318 1447 1748 1536 1100 1421 1119 1650 1544 1109 1421 1447 1433 1431 1105 1530 1564 1433 1648 1105 1651 1564 1652 1427 1109 1312 1455 1433 1772 1101 1438 1452 1435 1324 1110 1430 1454 1653 1659 1107 1765 1452 1430 1546 1112 1550 1457 1660 1542 1108 1426 1453 1655 1322 1213 1535 1450 1437 1546 1223 1426 1452 1652 1655 1218 1772 1451 1655 1661 1214 1424 1454 1542 1665 1225 1665 1456 1547 1434 1116 1538 1456 1434 1548 1220 1551 1570 1442 1668 1111 1658 1461 1436 1443 1224 1430 1466 1545 1780 1118 1426 1463 1549 1442 1222 1220 1465 1767 1443 1117 1326 1463 1542 1563 1224 1540 1463 1764 1658 1121 1437 1462 1552 1556 1110 1544 1462 1447 1449 1123 1535 1467 1551 1664 1226 1436 1464 1445 1447 1117 1330 1469 1777 1438 1221 1547 1464 1675 1335 1341 1438 1581 1553 1562 1340 1550 1572 1774 1455 1225 1554 1471 1777 1444 1345 1448 1463 1555 1460 1339 1553 1580 1788 1455 1225 1337 1586 1451 1449 1342 1550 1475 1555 1451 1344 1557 1476 1565 1568 1231 1447 1473 1457 1447 1229 1552 1478 1666 1568 1233 1447 1480 1669 1446 1234 1343 1481 1787 1444 1229 1549 1479 1565 1459 1236 1343 1487 1786 1576 1233 1553 1482 1565 1461 1238 1343 1479 1566 1457 1240 1558 1477 1794 1578 1241 1560 1482 1568 1574 1242 1451 1587 1791 1345 1243 1667 1477 1456 1462 1241 1457 1484 1572 1572 1238 1456 1594 1573 1578 1239 1453 1588 1467 1567 1246 1345 1594 1123 1344 1247 1442 1371 1122 1577 1248 1677 1369 1676 1347 1243 1342 1370 1579 1467 1242 1571 1484 1458 1349 1241 1675 1368 1467 1467 1245 1351 1366 1575 1473 1246 1452 1255 1684 1466 1240 1560 1254 1354 1345 1251 1677 1258 1471 1476 1252 1567 1256 1245 1350 1251 1347 1257 1799 1468 1248 1456 1255 1581 1353 1246 1242 1255 1583 1474 1249 1452 1257 1472 1474 1244 1236 1256 1689 1350 1247 1790 1363 1580 1589 1248 1793 1255 1474 1479 1247 1689 1258 1480 1362 1248 1354 1262 1577 1477 1253 1690 1261 1473 1478 1248 1473 1152 1593 1481 1252 1353 1258 1470 1347 1254 1460 1262 1474 1478 1146 1582 1262 1475 1353 1250 1354 1260 1248 1372 1247 1363 1266 1481 1254 1145 1365 1264 1137 1488 1258 1806 1373 1367 1253 1257 1470 1379 1254 1370 1144 1375 1152 1364 1484 1263 1363 1379 1367 1260 1260 1366 1158 1481 1257 1262 1583 1155 1144 1365 1151 1249 1156 1359 1257 1263 1252 1146 1362 1260 1150 1361 1159 1142 1143 1040 1256 1042 1257 1147 1147 1253 1044 1148 1262 1147 1485 932 1146 1372 1038 1253 935 1145 1143 1146 1260 931 1258 1141 928 1371 931 1029 1263 1036 1253 928 1368 1266 1039 1593 820 1257 1154 1040 1141 823 1035 1147 816 1594 820 1151 1144 815 1368 705 926 1038 706 1597 819 1151 1150 817 1484 706 1041 1266 705 1371 709 922 1267 705 1375 599 1150 1035 705 1368 599 1152 1039 707 1824 598 1039 1145 596 1821 602 1260 1035 592 1372 596 1044 1264 590 1824 485 1147 1037 486 1375 484 1035 1145 485 1710 483 1150 930 598 1263 374 1147 1148 484 1144 373 1040 932 486 1263 376 1709 1037 484 1711 375 1712 926 483 1145 374 1149 931 486 1262 376 1155 1038 483 1149 374 1487 1041 483 1265 373 1035 1257 486 1485 377 1149 1039 372 1153 374 1152 925 372 1487 375 1382 1043 373 1269 376 1039 1044 372 1267 374 931 818 374 1048 373 932 1041 374 1384 374 1162 1043 373 1159 226 1147 820 373 1160 226 1046 1042 374 1160 226 1154 1045 373 1046 226 929 934 372 1155 226 1153 1043 374 940 226 1047 936 375 938 227 1163 827 372 936 227 1042 818 373 937 227 938 822 227 821 227 937 712 227 940 227 1157 934 227 937 227 940 710 227 942 227 1052 709 227 830 227 1051 823 227 940 227 1161 712 227 831 227 1048 709 227 824 227 1053 711 227 939 227 1048 712 227 830 227 938 707 227 939 227 939 707 227 828 227 939 711 227 830 227 827 713 227 830 227 939 602 227 827 227 825 711 227 938 227 714 707 227 714 227 830 597 227 831 227 827 488 227 710 227 824 593 227 715 227 718 490 227 823 227 712 488 227 713 227 718 602 227 715 227 716 490 227 603 227 827 488 227 714 227 719 490 227 604 227 713 491 227 603 227 717 491 227 710 227 716 491 227 599 227 711 490 227 718 227 715 491 227 717 227 603 491 227 604 227 714 492 227 718 227 600 488 227 600 227 602 600 227 605 227 603 490 227 604 227 715 492 227 602 227 603 490 227 603 227 604 489 227 602 227 602 493 227 601 227 602 489 227 605 227 600 489 227 605 227 602 487 227 604 227 602 493 227 604 227 602 491 227 604 227 599 491 227 604 227 607 492 227 605 227 602 488 227 600 227 602 491 227 603 227 604 491 227 604 227 603 379 227 605 227 604 380 227 491 227 491 490 227 491 227 604 492 227 490 227 604 488 227 602 227 602 488 227 492 227 599 489 227 490 227 606 379 227 489 227 492 489 227 490 227 493 490 227 601 227 603 490 227 488 227 605 491 227 491 227 492 378 227 491 227 605 491 227 485 227 603 490 227 488 227 494 492 227 489 227 601 379 227 493 227 493 381 227 489 227 493 489 227 489 227 492 377 227 489 227 492 491 227 489 227 492 380 227 492 227 492 380 227 492 227 494 491 227 491 227 494 490 227 492 227 491 379 227 488 227 494 379 227 489 227 495 491 227 493 227 491 381 227 491 227 490 380 227 492 227 492 380 227 492 227 491 378 227 491 227 494 381 227 488 227 489 378 227 490 227 493 379 227 489 227 492 379 227 490 227 494 379 227 490 227 490 379 227 493 227 495 381 227 489 227 491 380 227 492 227 492 377 227 493 227 491 381 227 377 227 490 380 227 490 227 492 379 227 490 227 491 376 227 491 227 491 379 227 490 227 492 379 227 492 227 495 379 227 488 227 493 378 227 492 227 492 377 227 491 227 491 380 227 493 227 492 378 227 492 227 493 378 227 378 227 493 380 227 492 227 377 376 227 490 227 491 376 227 494 227 377 379 227 489 227 492 379 227 489 227 492 380 227 494 227 493 379 227 491 227 491 379 227 490 227 490 379 227 489 227 377 377 227 378 227 491 375 227 490 227 378 378 227 488 227 491 376 227 495 227 375 378 227 490 227 491 377 227 377 227 378 380 227 490 227 492 378 227 489 227 377 378 227 378 227 492 379 227 488 227 376 380 227 491 227 491 380 227 377 227 488 377 227 491 227 489 379 227 378 227 492 377 227 488 227 488 376 227 379 227 490 379 227 377 227 491 378 227 379 227 378 379 227 377 227 492 381 227 379 227 378 379 227 378 227 492 380 227 379 227 378 380 227 377 227 493 378 227 379 227 489 381 227 380 227 488 379 227 379 227 493 380 227 378 227 493 379 227 380 227 491 380 227 376 227 378 378 227 378 227 492 379 227 379 227 489 377 227 377 227 490 377 227 380 227 490 377 227 379 227 494 379 227 378 227 380 381 227 380 227 377 380 227 379 227 379 380 227 379 227 493 380 227 379 227 379 380 227 379 227 379 380 227 380 227 377 379 227 379 227 380 378 227 379 227 378 378 227 379 227 380 380 227 379 227 494 380 227 377 227 378 380 227 378 227 380 379 227 378 227 378 380 227 378 227 380 379 227 380 227 378 377 227 378 227 379 381 227 379 227 378 380 227 380 227 378 380 227 379 227 379 377 227 379 227 378 380 227 379 227 379 378 227 377 227 379 379 227 378 227 380 381 227 379 227 377 380 227 379 227 380 380 227 379 227 378 379 227 379 227 379 380 227 379 227 377 380 227 377 227 377 379 227 380 227 377 379 227 379 227 380 378 227 379 227 379 380 227 378 227 380 380 227 379 227 377 380 227 379 227 378 381 227 378 227 378 380 227 378 227 379 379 227 380 227 378 379 227 377 227 380 377 227 378 227 378 377 227 380 227 379 379 227 378 227 377 379 227 379 227 379 378 227 377 227 380 378 227 380 227 377 378 227 376 227 377 380 227 378 227 378 378 227 379 227 378 378 227 379 227 378 379 227 378 227 378 379 227 379 227 378 380 227 379 227 376 379 227 379 227 380 379 227 379 227 379 376 227 380 227 380 378 227 378 227 380 379 227 380 227 377 378 227 375 227 378 378 227 379 227 378 377 227 378 227 380 380 227 380 227 379 380 227 379 227 379 379 227 379 227 380 377 227 380 227 375 380 227 379 227 378 378 227 380 227 379 379 227 378 227 379 378 227 380 227 379 381 227 379 227 379 379 227 376 227 378 379 227 379 227 378 378 227 378 227 377 380 227 376 227 378 380 227 377 227 379 379 227 377 227 380 377 227 380 227 378 377 227 378 227 380 381 227 380 227 377 380 227 380 227 377 376 227 377 227 379 379 227 377 227 379 380 227 380 227 379 380 227 379 227 379 378 227 379 227 378 381 227 378 227 379 379 227 378 227 378 380 227 379 227 378 381 227 380 227 377 380 227 379 227 378 379 227 378 227 380 380 227 379 227 378 378 227 380 227 378 380 227 379 227 378 381 227 380 227 376 379 227 378 227 378 378 227 380 227 380 376 227 380 227 380 381 227 379 227 379 378 227 376 227 380 380 227 379 227 379 380 227 379 227 378 379 227 379 227 380 380 227 380 227 375 381 227 378 227 379 378 227 379 227 377 379 227 378 227 380 376 227 379 227 380 380 227 379 227 378 381 227 377 227 380 376 227 378 227 378 378 227 379 227 380 378 227 380 227 379 379 227 379 227 380 378 227 380 227 378 378 227 380 227 380 380 227 376 227 378 379 227 379 227 378 378 227 379 227 378 379 227 379 227 379 379 227 378 227 378 379 227 377 227 380 379 227 380 227 379 380 227 379 227 378 380 227 378 227 379 381 227 378 227 380 380 227 379 227 377 378 227 380 227 379 379 227 377 227 378 379 227 377 227 380 380 227 377 227 378 379 227 379 227 380 379 227 378 227 378 379 227 379 227 379 378 227 375 227 380 381 227 380 227 377 380 227 379 227 379 379 227 379 227 379 380 227 379 227 380 377 227 380 227 377 379 227 377 227 379 379 227 379 227 376 379 227 379 227 379 377 227 378 227 380 378 227 378 227 378 380 227 378 227 377 379 227 378 227 379 379 227 375 227 376 376 227 377 227 377 380 227 379 227 379 380 227 377 227 377 378 227 380 227 378 379 227 379 227 378 378 227 379 227 375 379 227 377 227 376 381 227 379 227 377 380 227 378 227 379 379 227 378 227 378 378 227 377 227 377 379 227 379 227 377 379 227 379 227 377 379 227 378 227 379 378 227 380 227 378 379 227 379 227 377 379 227 380 227 376 378 227 378 227 377 378 227 379 227 379 380 227 380 227 377 380 227 378 227 375 378 227 378 227 376 378 227 380 227 379 376 227 377 227 377 378 227 379 227 377 378 227 380 227 377 380 227 380 227 379 379 227 378 227 376 379 227 379 227 379 380 227 379 227 379 378 227 380 227 380 377 227 380 227 377 379 227 379 227 377 378 227 379 227 377 379 227 376 227 377 376 227 378 227 379 378 227 379 227 376 379 227 380 227 377 378 227 380 227 378 376 227 378 227 377 379 227 379 227 376 376 227 379 227 378 377 227 379 227 379 378 227 376 227 379 377 227 378 227 379 377 227 379 227 378 377 227 378 227 376 378 227 379 227 377 376 227 379 227 377 379 227 379 227 378 376 227 375 227 379 376 227 378 227 377 377 227 380 227 377 378 227 378 227 377 377 227 380 227 378 378 227 379 227 377 379 227 376 227 378 378 227 380 227 378 378 227 379 227 377 378 227 380 227 379 377 227 377 227 376 379 227 378 227 376 378 227 380 227 380 379 227 379 227 378 377 227 380 227 380 376 227 379 227 378 378 227 380 227 377 377 227 379 227 378 377 227 380 227 379 378 227 380 227 378 380 227 378 227 380 377 227 378 227 379 379 227 380 227 378 379 227 379 227 378 378 227 379 227 377 377 227 380 227 375 378 227 380 227 379 376 227 379 227 378 378 227 378 227 378 378 227 379 227 380 378 227 379 227 380 376 227 378 227 378 378 227 379 227 378 378 227 380 227 379 379 227 379 227 377 377 227 379 227 377 379 227 380 227 376 378 227 375 227 378 376 227 380 227 380 377 227 380 227 377 378 227 379 227 380 379 227 379 227 378 379 227 380 227 375 379 227 378 227 380 378 227 379 227 377 377 227 380 227 377 379 227 379 227 379 378 227 379 227 380 378 227 380 227 380 378 227 380 227 379 378 227 379 227 380 378 227 380 227 377 378 227 378 227 380 377 227 380 227 377 378 227 380 227 377 379 227 379 227 380 377 227 377 227 379 377 227 379 227 379 377 227 379 227 378 378 227 380 227 378 380 227 379 227 378 378 227 378 227 379 376 227 379 227 379 378 227 380 227 379 377 227 379 227 379 376 227 379 227 380 378 227 379 227 379 378 227 378 227 380 380 227 380 227 377 378 227 376 227 379 378 227 380 227 380 379 227 379 227 378 377 227 380 227 379 377 227 380 227 380 379 227 380 227 379 378 227 379 227 379 379 227 379 227 378 379 227 379 227 379 375 227 380 227 378 378 227 379 227 380 379 227 380 227 377 376 227 380 227 380 378 227 378 227 378 379 227 378 227 379 377 227 379 227 378 378 227 380 227 379 377 227 379 227 379 378 227 379 227 380 378 227 379 227 378 378 227 380 227 379 377 227 377 227 379 378 227 380 227 377 379 227 377 227 379 380 227 378 227 378 377 227 380 227 380 377 227 379 227 380 377 227 378 227 379 376 227 379 227 380 378 227 379 227 379 377 227 379 227 378 378 227 379 227 380 379 227 378 227 380 377 227 379 227 378 379 227 379 227 377 379 227 379 227 380 378 227 379 227 379 377 227 379 227 380 378 227 379 227 377 378 227 379 227 378 377 227 380 227 377 377 227 379 227 380 377 227 377 227 379 377 227 379 227 377 376 227 380 227 375 376 227 379 227 380 380 227 379 227 380 379 227 379 227 379 378 227 376 227 380 378 227 379 227 378 377 227 379 227 378 378 227 380 227 380 376 227 379 227 379 378 227 378 227 378 377 227 379 227 379 378 227 379 227 376 378 227 378 227 379 379 227 379 227 378 380 227 379 227 379 378 227 379 227 380 377 227 380 227 379 379 227 378 227 379 376 227 378 227 378 379 227 380 227 378 378 227 380 227 380 378 227 379 227 376 378 227 378 227 380 375 227 380 227 378 377 227 376 227 379 377 227 380 227 379 376 227 378 227 379 378 227 380 227 379 378 227 379 227 376 377 227 379 227 378 377 227 377 227 379 379 227 380 227 378 377 227 380 227 379 378 227 377 227 378 379 227 380 227 378 377 227 376 227 376 378 227 378 227 378 378 227 380 227 379 377 227 380 227 378 378 227 379 227 379 378 227 378 227 377 378 227 378 227 379 377 227 379 227 378 379 227 378 227 380 378 227 379 227 377 377 227 380 227 378 377 227 376 227 380 378 227 378 227 379 374 227 380 227 377 377 227 379 227 378 377 227 380 227 374 375 227 379 227 380 378 227 379 227 378 377 227 378 227 376 378 227 380 227 380 377 227 377 227 379 377 227 380 227 376 377 227 378 227 379 378 227 380 227 379 377 227 378 227 378 377 227 378 227 377 376 227 380 227 376 377 227 380 227 380 378 227 380 227 377 377 227 380 227 377 378 227 378 227 378 376 227 376 227 377 378 227 379 227 380 377 227 380 227 378 376 227 378 227 376 377 227 379 227 380 378 227 380 227 375 378 227 378 227 378 377 227 380 227 376 377 227 379 227 378 377 227 380 227 376 376 227 379 227 378 378 227 377 227 377 378 227 379 227 379 377 227 380 227 379 377 227 377 227 376 377 227 380 227 377 375 227 379 227 377 378 227 379 227 376 377 227 379 227 378 378 227 380 227 377 376 227 379 227 378 376 227 380 227 376 378 227 377 227 375 377 227 380 227 377 378 227 379 227 379 376 227 379 227 377 376 227 379 227 378 375 227 380 227 376 375 227 379 227 379 378 227 377 227 377 376 227 379 227 378 378 227 378 227 377 378 227 380 227 376 377 227 379 227 377 376 227 379 227 377 378 227 378 227 379 377 227 379 227 377 377 227 379 227 377 378 227 379 227 377 376 227 380 227 379 378 227 380 227 377 378 227 380 227 377 375 227 379 227 377 375 227 379 227 378 375 227 380 227 376 378 227 379 227 379 377 227 379 227 375 378 227 378 227 378 377 227 378 227 378 378 227 378 227 377 378 227 380 227 377 377 227 379 227 375 378 227 377 227 379 378 227 380 227 379 376 227 379 227 379 380 227 380 227 378 377 227 379 227 377 378 227 380 227 376 376 227 379 227 380 376 227 380 227 378 377 227 377 227 379 378 227 379 227 378 376 227 379 227 377 377 227 378 227 380 379 227 379 227 377 377 227 376 227 379 379 227 377 227 377 377 227 376 227 380 376 227 380 227 377 376 227 380 227 379 380 227 380 227 379 377 227 377 227 380 378 227 377 227 376 381 227 380 227 379 379 227 378 227 377 375 227 379 227 380 379 227 380 227 376 377 227 376 227 379 379 227 379 227 379 378 227 379 227 378 379 227 378 227 378 377 227 380 227 377 380 227 380 227 379 377 227 379 227 380 379 227 380 227 378 377 227 378 227 377 378 227 379 227 380 379 227 380 227 377 379 227 380 227 380 380 227 378 227 379 376 227 379 227 380 379 227 380 227 377 381 227 376 227 379 378 227 378 227 378 378 227 378 227 380 380 227 379 227 378 378 227 378 227 380 380 227 379 227 377 377 227 378 227 380 379 227 379 227 379 380 227 379 227 380 379 227 380 227 378 379 227 380 227 379 378 227 380 227 378 378 227 380 227 380 381 227 379 227 378 378 227 379 227 380 379 227 380 227 379 380 227 380 227 379 378 227 380 227 377 380 227 381 227 380 378 227 380 227 378 377 227 379 227 380 378 227 381 227 379 378 227 379 227 378 377 227 380 227 378 378 227 379 227 378 377 227 381 227 380 377 227 379 227 377 376 227 380 227 375 375 227 379 227 380 381 227 381 227 378 379 227 378 227 379 381 227 381 227 379 377 227 380 227 380 379 227 380 227 379 378 227 381 227 380 379 227 380 227 378 378 227 378 227 379 376 227 380 227 380 378 227 380 227 379 379 227 379 227 380 379 227 378 227 377 379 227 380 227 379 379 227 380 227 377 377 227 380 227 380 379 227 381 227 378 378 227 380 227 379 379 227 379 227 380 380 227 380 227 379 380 227 380 227 380 379 227 377 227 379 380 227 378 227 380 380 227 379 227 379 380 227 380 227 377 378 227 380 227 379 379 227 380 227 379 379 227 378 227 377 379 227 379 227 380 379 227 377 227 379 380 227 227 227 380 379 227 227 227 379 380 227 227 227 378 380 227 227 227 380 380 227 227 227 376 379 227 227 227 378 380 227 227 227 378 380 227 227 227 379 379 227 227 227 377 380 227 227 227 380 380 227 227 227 379 379 227 227 227 379 378 227 227 227 380 381 227 227 227 378 380 227 227 227 378 381 227 227 227 376 382 227 227 227 379 381 227 227 227 378 381 227 227 227 377 381 227 227 227 379 377 227 227 227 379 380 227 227 227 379 379 227 227 227 379 380 227 227 227 379 381 227 227 227 379 377 227 227 227 377 376 227 227 227 379 378 227 227 227 378 381 227 227 227 380 377 227 227 227 379 380 227 227 227 379 378 227 227 227 376 376 227 227 227 379 377 227 227 227 378 380 227 227 227 379 377 227 227 227 378 379 227 227 227 379 379 227 227 227 376 378 227 227 227 379 378 227 227 227 379 378 227 227 227 378 379 227 227 227 380 379 227 227 227 380 380 227 227 227 373 379 227 227 227 379 381 227 227 227 377 381 227 227 227 378 381 227 227 227 378 379 227 227 227 378 381 227 227 227 378 379 227 227 227 378 382 227 227 227 380 379 227 227 227 379 378 227 227 227 380 376 227 227 227 378 379 227 227 227 377 379 227 227 227 378 378 227 227 227 378 378 227 227 227 380 381 227 227 227 377 381 227 227 227 379 379 227 227 227 379 381 227 227 227 379 381 227 227 227 376 381 227 227 227 378 381 227 227 227 377 382 227 227 227 380 381 227 227 227 379 382 227 227 227 380 380 227 227 227 377 382 227 227 227 379 381 227 227 227 380 381 227 227 227 379 380 227 227 227 378 381 227 227 227 378 377 227 227 227 379 380 227 227 227 379 382 227 227 227 378 381 227 227 227 378 380 227 227 227 379 378 227 227 227 379 380 227 227 227 378 377 227 227 227 379 379 227 227 227 379 379 227 227 227 377 375 227 227 227 378 378 227 227 227 376 378 227 227 227 378 379 227 227 227 379 378 227 227 227 379 378 227 227 227 378 380 227 227 227 377 379 227 227 227 376 380 227 227 227 380 380 227 227 227 377 381 227 227 227 378 378 227 227 227 377 380 227 227 227 378 381 227 227 227 377 381 227 227 227 378 382 227 227 227 380 381 227 227 227 378 382 227 227 227 378 380 227 227 227 379 381 227 227 227 378 382 227 227 227 380 380 227 227 227 379 381 227 227 227 380 381 227 227 227 376 381 227 227 227 379 381 227 227 227 380 382 227 227 227 380 378 227 227 227 380 381 227 227 227 379 380 227 227 227 379 380 227 227 227 380 380 227 227 227 378 380 227 227 227 380 378 227 227 227 378 378 227 227 227 379 376 227 227 227 379 377 227 227 227 379 379 227 227 227 377 378 227 227 227 380 379 227 227 227 377 375 227 227 227 380 379 227 227 227 378 379 227 227 227 379 381 227 227 227 380 377 227 227 227 379 379 227 227 227 378 378 227 227 227 380 378 227 227 227 377 379 227 227 227 378 376 227 227 227 379 378 227 227 227 377 379 227 227 227 379 380 227 227 227 377 380 227 227 227 380 380 227 227 227 380 380 227 227 227 380 380 227 227 227 380 379 227 227 227 379 380 227 227 227 376 379 227 227 227 380 375 227 227 227 380 378 227 227 227 378 379 227 227 227 377 379 227 227 227 378 380 227 227 227 379 380 227 227 227 380 380 227 227 227 380 380 227 227 227 379 379 227 227 227 380 380 227 227 227 377 380 227 227 227 380 377 227 227 227 379 377 227 227 227 380 378 227 227 227 379 379 227 227 227 379 379 227 227 227 379 379 227 227 227 380 379 227 227 227 379 378 227 227 227 379 378 227 227 227 380 379 227 227 227 380 379 227 227 227 380 379 227 227 227 380 379 227 227 227 379 379 227 227 227 378 378 227 227 227 379 379 227 227 227 379 380 227 227 227 379 378 227 227 227 378 378 227 227 227 377 380 227 227 227 379 380 227 227 227 379 379 227 227 227 379 380 227 227 227 379 378 227 227 227 379 378 227 227 227 379 380 227 227 227 380 378 227 227 227 378 379 227 227 227 380 380 227 227 227 378 379 227 227 227 378 378 227 227 227 380 376 227 227 227 378 379 227 227 227 380 380 227 227 227 379 380 227 227 227 377 380 227 227 227 378 377 227 227 227 380 377 227 227 227 380 378 227 227 227 379 379 227 227 227 380 379 227 227 227 378 378 227 227 227 378 378 227 227 227 378 379 227 227 227 379 378 227 227 227 377 379 227 227 227 380 380 227 227 227 380 380 227 227 227 378 379 227 227 227 379 379 227 227 227 376 380 227 227 227 380 380 227 227 227 380 380 227 227 227 378 379 227 227 227 380 380 227 227 227 378 380 227 227 227 380 379 227 227 227 380 380 227 227 227 379 379 227 227 227 379 380 227 227 227 379 379 227 227 227 379 379 227 227 227 379 378 227 227 227 380 380 227 227 227 378 378 227 227 227 380 379 227 227 227 380 377 227 227 227 378 380 227 227 227 376 380 227 227 227 380 379 227 227 227 380 380 227 227 227 378 379 227 227 227 378 378 227 227 227 380 379 227 227 227 379 380 227 227 227 376 380 227 227 227 379 380 227 227 227 379 379 227 227 227 380 379 227 227 227 378 378 227 227 227 379 380 227 227 227 379 379 227 227 227 378 378 227 227 227 379 379 227 227 227 380 380 227 227 227 379 380 227 227 227 377 380 227 227 227 380 380 227 227 227 380 380 227 227 227 379 379 227 227 227 380 379 227 227 227 377 377 227 227 227 379 379 227 227 227 379 379 227 227 227 380 380 227 227 227 377 380 227 227 227 378 377 227 227 227 380 380 227 227 227 380 380 227 227 227 380 380 227 227 227 380 380 227 227 227 380 379 227 227 227 379 378 227 227 227 379 380 227 227 227 377 379 227 227 227 380 380 227 227 227 380 378 227 227 227 379 379 227 227 227 379 378 227 227 227 376 380 227 227 227 379 378 227 227 227 379 378 227 227 227 376 378 227 227 227 380 380 227 227 227 377 376 227 227 227 379 377 227 227 227 380 379 227 227 227 380 379 227 227 227 379 379 227 227 227 377 379 227 227 227 378 380 227 227 227 378 380 227 227 227 380 380 227 227 227 380 380 227 227 227 380 380 227 227 227 380 379 227 227 227 378 378 227 227 227 379 379 227 227 227 380 380 227 227 227 380 379 227 227 227 379 379 227 227 227 379 378 227 227 227 378 379 227 227 227 380 380 227 227 227 379 377 227 227 227 378 380 227 227 227 379 380 227 227 227 378 380 227 227 227 378 379 227 227 227 380 378 227 227 227 378 380 227 227 227 380 380 227 227 227 379 379 227 227 227 380 379 227 227 227 380 379 227 227 227 378 379 227 227 227 380 380 227 227 227 380 379 227 227 227 379 379 227 227 227 378 380 227 227 227 380 379 227 227 227 375 380 227 227 227 379 379 227 227 227 378 380 227 227 227 378 379 227 227 227 378 380 227 227 227 378 379 227 227 227 380 378 227 227 227 377 380 227 227 227 378 380 227 227 227 377 376 227 227 227 378 380 227 227 227 378 380 227 227 227 378 380 227 227 227 377 379 227 227 227 378 379 227 227 227 380 380 227 227 227 379 380 227 227 227 378

Tree=0
num_leaves=11
num_cat=0
split_feature=3 1 6 5 3 1 1 0 0 0
split_gain=112.176 119.441 6.61654 5.70429 2.57206 5.18527 2.53688 0.158555 7.10543e-15 1.77636e-15
threshold=13.947421771240238 -205.65833130493161 171.12213740458029 194.71755725190846 -4.0306384948730463 -222.91214556884762 -216.30893739013669 35.500000000000007 101.50000000000001 17.500000000000004
decision_type=2 2 2 2 2 2 2 2 2 2
left_child=2 6 4 7 8 -6 9 -3 -1 -2
right_child=1 3 -4 -5 5 -7 -8 -9 -10 -11
leaf_value=-1.5710257537444132 -1.5710257537444132 -1.3486714680301277 -1.5008086108872705 -1.4071857537444132 -1.5710257537444132 -1.5008086108872705 -1.5242143251729847 -1.3369686108872705 -1.5710257537444132 -1.5710257537444132
leaf_weight=37.811279296875 4.2724609374999982 4.2724609375000027 4.2724609374999991 4.2724609374999991 6.8359375 4.2724609374999982 4.2724609375000027 8.9721679687499982 4.9133300781249991 4.69970703125
leaf_count=177 20 20 20 20 32 20 20 42 23 22
internal_value=-1.51983 -1.44262 -1.5607 -1.35695 -1.56545 -1.54402 -1.55593 -1.34074 -1.57103 -1.57103
internal_weight=88.8672 30.7617 58.1055 17.5171 53.833 11.1084 13.2446 13.2446 42.7246 8.97217
internal_count=416 144 272 82 252 52 62 62 200 42
is_linear=0
shrinkage=1


Tree=1
num_leaves=4
num_cat=0
split_feature=2 5 0
split_gain=318.04 1.89749 5.68434e-14
threshold=62.728083496093753 284.38549618320621 37.500000000000007
decision_type=2 2 2
left_child=1 -1 -2
right_child=2 -3 -4
leaf_value=-1.6499889429535088 -1.401773219236526 -1.6161413442648294 -1.401773219236526
leaf_weight=63.049994438886642 10.071884095668795 4.4316290020942679 6.2445681393146506
leaf_count=313 50 22 31
internal_value=-1.59987 -1.64777 -1.40177
internal_weight=83.7981 67.4816 16.3165
internal_count=416 335 81
is_linear=0
shrinkage=1


Tree=2
num_leaves=10
num_cat=0
split_feature=0 3 4 1 3 0 0 0 1
split_gain=183.544 21.8731 15.9666 5.12655 14.469 0.644786 0.16667 7.10543e-15 1.77636e-15
threshold=21.500000000000004 3.6834792541503929 -407.09160305343488 -213.42033308715813 4.3562499206542968 17.500000000000004 32.500000000000007 78.500000000000014 -158.66613822021478
decision_type=2 2 2 2 2 2 2 2 2
left_child=1 -1 -2 4 6 -3 -4 -5 -9
right_child=2 5 3 7 -6 -7 -8 8 -10
leaf_value=-1.5328616453866986 -1.527589432165307 -1.392269292816255 -1.6260040789646173 -1.6383059098145312 -1.5313334676413677 -1.4168729545160827 -1.6383059098145312 -1.6383059098145312 -1.6383059098145312
leaf_weight=4.2676574438810375 4.0644356608390799 7.7224277555942518 4.0644356608390835 33.938037768006325 4.674101009964942 4.0644356608390808 8.5353148877620679 9.14498023688793 4.0644356608390799
leaf_count=21 20 38 20 167 23 20 42 45 20
internal_value=-1.58803 -1.43587 -1.6237 -1.62977 -1.60647 -1.40075 -1.63434 -1.63831 -1.63831
internal_weight=84.5403 16.0545 68.4857 64.4213 17.2739 11.7869 12.5998 47.1475 13.2094
internal_count=416 79 337 317 85 58 62 232 65
is_linear=0
shrinkage=1


Tree=3
num_leaves=5
num_cat=0
split_feature=6 0 3 0
split_gain=315.605 1.03492 0.20408 7.10543e-15
threshold=-237.16412213740452 62.500000000000007 -86.233158294677722 53.500000000000007
decision_type=2 2 2 2
left_child=2 3 -1 -2
right_child=1 -3 -4 -5
leaf_value=-1.5554193361233879 -1.844532646675362 -1.816998045670412 -1.5698750016509866 -1.844532646675362
leaf_weight=8.3012437820434553 53.093371689319611 3.6317941546440116 3.4588515758514395 3.4588515758514395
leaf_count=48 307 21 20 20
internal_value=-1.79658 -1.84287 -1.55967 -1.84453
internal_weight=71.9441 60.184 11.7601 56.5522
internal_count=416 348 68 327
is_linear=0
shrinkage=1


Tree=4
num_leaves=8
num_cat=0
split_feature=1 0 3 3 3 2 1
split_gain=129.269 99.5493 11.2301 7.19531 4.02396 0.614202 0.134357
threshold=-214.91192072143548 23.500000000000004 4.3562499206542968 4.8925510925292981 54.557870330810552 9.321824163818361 -227.05770574340815
decision_type=2 2 2 2 2 2 2
left_child=1 3 5 -1 -2 -3 -5
right_child=4 2 -4 6 -6 -7 -8
leaf_value=-1.5307099924637138 -1.6153546493325253 -1.3735127725644927 -1.4724480857877786 -1.6032625554941236 -1.5705691165977043 -1.3965453322566863 -1.6153546493325253
leaf_weight=4.1349330544471767 49.41245000064373 8.6833594143390673 4.5484263598918906 4.1349330544471732 5.5821596235036841 4.3416797071695319 5.1686663180589667
leaf_count=20 239 42 22 20 27 21 25
internal_value=-1.56478 -1.48315 -1.40481 -1.58559 -1.61081 -1.38119 -1.60998
internal_weight=86.0066 31.012 17.5735 13.4385 54.9946 13.025 9.3036
internal_count=416 150 85 65 266 63 45
is_linear=0
shrinkage=1


Tree=5
num_leaves=14
num_cat=0
split_feature=3 1 6 5 3 1 1 5 1 1 5 2 0
split_gain=98.3441 93.9621 6.25074 3.61699 2.52953 4.87881 2.40078 0.134051 0.00099586 1.24124e-05 8.28238e-06 7.61429e-06 1.51189e-06
threshold=13.947421771240238 -205.65833130493161 171.12213740458029 194.71755725190846 -4.0306384948730463 -222.91214556884762 -216.30893739013669 6.9847328244274864 -193.58556943359372 -160.90711097412103 1.0000000180025095e-35 62.728083496093753 17.500000000000004
decision_type=2 2 2 2 2 2 2 2 2 2 2 2 2
left_child=2 6 4 7 9 -6 12 8 -3 11 -11 -1 -2
right_child=1 3 -4 -5 5 -7 -8 -9 -10 10 -12 -13 -14
leaf_value=-0.050468363117054084 -0.050410233320435177 0.15350510920782323 0.017778139351080139 0.09991873579930298 -0.050466124523550294 0.017911525576509168 -0.0046454557782364776 0.14382935119541718 0.15449954532587784 -0.05043238483779762 -0.05034735944928001 -0.050413585433653221 -0.050452179243061425
leaf_weight=20.342983260750771 4.0965892970561963 5.2986070513725263 4.330969735980033 4.5844923555850974 6.5745844542980194 4.3246895819902402 4.2882893234491339 4.8018831908702841 4.7966969013214147 5.7423831224441546 5.714348703622818 9.2189085930585843 4.5168392509222031
leaf_count=99 20 22 20 20 32 20 20 20 20 28 28 45 22
internal_value=3.14618e-05 0.069445 -0.039931 0.138755 -0.0447451 -0.0233348 -0.0352136 0.150706 0.153978 -0.0504342 -0.05039 -0.0504513 -0.0504322
internal_weight=88.6323 32.3834 56.2489 19.4817 51.9179 10.8993 12.9017 14.8972 10.0953 41.0186 11.4567 29.5619 8.61343
internal_count=416 144 272 82 252 52 62 62 42 200 56 144 42
is_linear=0
shrinkage=0.05


Tree=6
num_leaves=10
num_cat=0
split_feature=2 5 5 0 5 6 1 6 0
split_gain=258.434 1.87969 0.00127246 0.000423306 2.13695e-05 3.86161e-05 2.22237e-05 1.00424e-05 7.92169e-06
threshold=62.728083496093753 284.38549618320621 167.04198473282443 30.500000000000004 -146.7519083969465 -65.484732824427496 -210.38328828124995 140.58778625954213 19.500000000000004
decision_type=2 2 2 2 2 2 2 2 2
left_child=1 4 3 -2 7 -6 -7 8 -1
right_child=2 -3 -4 -5 5 6 -8 -9 -10
leaf_value=-0.049404576595207167 0.16394753215847838 -0.015495356758216819 0.16455262401427256 0.16338179178613466 -0.049389216532822737 -0.049474878651186674 -0.049575757235366419 -0.049382763033296327 -0.049471474970073724
leaf_weight=5.5866421759128597 5.3030174523592022 4.363744542002677 4.5997720658779135 8.7820785343646985 5.7720739394426372 9.2896847128868139 13.241752415895458 5.3861453831195822 21.284136280417442
leaf_count=29 23 22 20 38 30 48 68 28 110
internal_value=-3.06791e-05 -0.0471892 0.163831 0.163595 -0.0494729 -0.0495046 -0.0495342 -0.0494451 -0.0494576
internal_weight=83.609 64.9242 18.6849 14.0851 60.5604 28.3035 22.5314 32.2569 26.8708
internal_count=416 335 81 61 313 146 116 167 139
is_linear=0
shrinkage=0.05


Tree=7
num_leaves=11
num_cat=0
split_feature=0 3 4 0 3 6 1 1 3 3
split_gain=152.528 15.1567 14.8253 5.14374 15.0486 0.571855 0.174242 0.000462081 0.00102757 2.71856e-05
threshold=21.500000000000004 3.6834792541503929 -407.09160305343488 33.500000000000007 4.3562499206542968 14.977099236641266 -228.50859194946284 -205.65833130493161 5.98310994873047 36.04470599365235
decision_type=2 2 2 2 2 2 2 2 2 2
left_child=1 -1 -2 4 6 -3 -4 8 -5 -9
right_child=2 5 3 7 -6 -7 -8 9 -10 -11
leaf_value=0.050040782549194397 0.056083356783583997 0.1640667944076338 -0.03687695490952491 -0.049592694259630116 0.061155657648572087 0.14231001471116764 -0.049605245787823715 -0.049631011181482707 -0.050602773492550823 -0.049515565036328528
leaf_weight=4.4513979703187969 4.2062234729528418 8.7570819556713086 3.9144227504730233 6.4353944808244687 4.4832064211368552 4.6102113574743262 8.5872201323509216 28.538688361644745 4.1362973004579544 6.2088278830051413
leaf_count=21 20 38 20 33 22 20 44 146 20 32
internal_value=3.5957e-05 0.129952 -0.0347697 -0.0409033 -0.0174361 0.156563 -0.0456199 -0.0496984 -0.0499879 -0.0496104
internal_weight=84.329 17.8187 66.5103 62.3041 16.9848 13.3673 12.5016 45.3192 10.5717 34.7475
internal_count=416 79 337 317 86 58 64 231 53 178
is_linear=0
shrinkage=0.05


Tree=8
num_leaves=9
num_cat=0
split_feature=6 6 1 2 0 0 1 3
split_gain=246.902 1.07896 0.145555 0.00639288 4.05254e-05 1.09244e-05 9.85924e-06 7.48414e-06
threshold=-237.16412213740452 -94.793893129770908 -176.89319545898431 20.134038861083983 58.500000000000007 19.500000000000004 -224.2959941284179 -4.6830584472656236
decision_type=2 2 2 2 2 2 2 2
left_child=2 -2 -1 -4 5 6 -3 -7
right_child=1 4 3 -5 -6 7 -8 -9
leaf_value=0.1803392887202081 -0.018797010311095638 -0.047474917244497483 0.19285874415283882 0.19026240117425272 -0.047632909291962552 -0.047469957827453897 -0.047361690762555163 -0.047512454162109093
leaf_weight=4.3313239365816107 3.4852887243032447 4.6427805572748184 4.1096585392951948 5.6037422865629196 4.8762958794832221 19.888577267527577 3.281458541750907 21.625967934727672
leaf_count=21 21 28 20 27 29 120 20 130
internal_value=-7.45496e-05 -0.0457649 0.187962 0.191361 -0.0474954 -0.0474818 -0.047428 -0.0474921
internal_weight=71.8451 57.8004 14.0447 9.7134 54.3151 49.4388 7.92424 41.5145
internal_count=416 348 68 47 327 298 48 250
is_linear=0
shrinkage=0.05


Tree=9
num_leaves=13
num_cat=0
split_feature=1 0 3 6 3 2 5 5 0 1 6 1
split_gain=113.549 76.7887 7.32501 7.31752 3.94539 0.428621 0.145732 0.00117228 4.15403e-05 5.14528e-05 2.89074e-05 1.36225e-05
threshold=-214.91192072143548 23.500000000000004 4.3562499206542968 21.297709923664137 54.557870330810552 9.321824163818361 -205.12977099236639 -241.9885496183206 23.500000000000004 -183.29529069824216 -8.0801526717557586 -159.88957526855467
decision_type=2 2 2 2 2 2 2 2 2 2 2 2
left_child=1 3 5 6 8 7 -1 -3 -2 10 -10 -11
right_child=4 2 -4 -5 -6 -7 -8 -9 9 11 -12 -13
leaf_value=-0.037716213301572453 -0.049741169323818391 0.16003659092728795 0.082586627539844651 0.035799828689065387 -0.0052844396264086352 0.14137887558656234 -0.050431354927208918 0.15894646712163993 -0.04986570005690634 -0.049884895746965363 -0.050008865998641176 -0.049810406763588853
leaf_weight=4.0272803902626029 4.5265548378229132 4.921094745397566 4.8368636965751639 4.0647390335798255 5.5369144678115836 4.8840699493885031 5.1163322031497946 4.9435511380434072 4.9586769342422512 15.689456179738043 12.202701598405833 10.081938311457639
leaf_count=20 23 21 22 20 27 21 25 21 25 79 61 51
internal_value=2.44819e-05 0.0731501 0.135982 -0.0200177 -0.0452255 0.153493 -0.044831 0.15949 -0.0498852 -0.0499004 -0.0499675 -0.0498558
internal_weight=85.7902 32.7939 19.5856 13.2084 52.9962 14.7487 9.14361 9.86465 47.4593 42.9328 17.1614 25.7714
internal_count=416 150 85 65 266 63 45 42 239 216 86 130
is_linear=0
shrinkage=0.05


Tree=10
num_leaves=15
num_cat=0
split_feature=3 1 3 1 4 1 6 5 1 3 5 0 1 3
split_gain=87.0248 76.546 6.03967 22.8326 2.72786 2.26578 0.615479 0.0902471 0.000482799 0.000413744 3.48537e-05 2.67281e-05 2.07292e-05 3.84348e-06
threshold=13.947421771240238 -205.65833130493161 -8.0193784606933587 -214.91192072143548 -179.67938931297701 -216.30893739013669 203.27099236641234 53.385496183206101 -226.62315814208984 -16.110582971191402 -113.87786259541987 17.500000000000004 -155.19095451049796 -86.233158294677722
decision_type=2 2 2 2 2 2 2 2 2 2 2 2 2 2
left_child=2 5 9 8 -3 11 7 -6 -4 10 13 -2 -12 -1
right_child=1 4 3 -5 6 -7 -8 -9 -10 -11 12 -13 -14 -15
leaf_value=-0.049737556492537749 -0.049631625111110939 0.089795580506125183 -0.050004989446332554 0.083254671621546733 0.13423495889969392 -0.0050026557567794134 0.11752446147189953 0.14340618362722593 -0.050679076772914701 -0.050143492033480376 -0.04968680890953249 -0.049811772389690333 -0.049568804970007221 -0.049791713947728043
leaf_weight=9.0533280670642835 3.9099465459585172 5.1309150606393805 7.3906313627958289 4.4334378391504279 5.7522712796926516 4.3095568716526023 5.1685460209846488 5.0261253714561462 4.1466274559497824 6.2368196845054618 12.748979285359379 4.3493568748235703 5.2558387070894321 5.1337150931358293
leaf_count=46 20 20 37 20 22 20 20 20 20 31 65 22 27 26
internal_value=6.35599e-05 0.0632701 -0.0390305 -0.0131874 0.121507 -0.0343918 0.13171 0.138512 -0.0502473 -0.0497708 -0.0496985 -0.0497265 -0.0496524 -0.0497572
internal_weight=88.0461 33.6467 54.3994 15.9707 21.0779 12.5689 15.9469 10.7784 11.5373 38.4287 32.1919 8.2593 18.0048 14.187
internal_count=416 144 272 77 82 62 62 42 57 195 164 42 92 72
is_linear=0
shrinkage=0.05


Tree=11
num_leaves=10
num_cat=0
split_feature=2 5 5 0 5 6 0 6 0
split_gain=216.74 1.85342 0.00336307 0.00133926 9.20036e-05 0.000103337 0.000114886 2.95593e-05 3.16538e-05
threshold=62.728083496093753 284.38549618320621 167.04198473282443 30.500000000000004 -146.7519083969465 -65.484732824427496 35.500000000000007 169.00763358778633 19.500000000000004
decision_type=2 2 2 2 2 2 2 2 2
left_child=1 4 3 -2 7 -6 -7 8 -1
right_child=2 -3 -4 -5 5 6 -8 -9 -10
leaf_value=-0.048722312584015187 0.14068581085298654 -0.014887799603224897 0.14157136874030643 0.13972803934066033 -0.048743591870219982 -0.048842925651366415 -0.049078537134061101 -0.048681072885624344 -0.048856621784811115
leaf_weight=5.5103006362915101 5.8499186187982586 4.3102810978889456 5.0673885047435752 9.7051823139190656 5.5128412842750576 8.5191708654165286 13.175759285688398 3.8450583219528189 21.517108738422394
leaf_count=30 23 22 20 38 30 46 70 21 116
internal_value=-7.30023e-05 -0.0465222 0.140453 0.140088 -0.0488699 -0.0489369 -0.048986 -0.0488108 -0.0488292
internal_weight=83.013 62.3905 20.6225 15.5551 58.0802 27.2078 21.6949 30.8725 27.0274
internal_count=416 335 81 61 313 146 116 167 146
is_linear=0
shrinkage=0.05


Tree=12
num_leaves=10
num_cat=0
split_feature=0 4 3 1 3 4 0 1 2
split_gain=129.487 13.8195 11.5715 5.14239 12.638 0.460638 0.175757 0.00062085 0.000106153
threshold=21.500000000000004 -407.09160305343488 3.6834792541503929 -213.42033308715813 4.3562499206542968 -40.458015267175604 32.500000000000007 -200.65325273437495 62.728083496093753
decision_type=2 2 2 2 2 2 2 2 2
left_child=2 -2 -1 4 6 -4 -3 -5 -9
right_child=1 3 5 7 -6 -7 -8 8 -10
leaf_value=0.044982539307380248 0.052358518241656417 -0.035828533601672846 0.14198922883678308 -0.049592246043602517 0.051120735668827716 0.12331658636651616 -0.048962475735702726 -0.049076173007616242 -0.048903868664871876
leaf_weight=4.6427735686302212 4.3325190693140021 3.7708358168602008 9.6110272407531738 5.2538791894912711 4.8887602239847174 5.0321541428565952 7.8496511876583099 24.285444229841232 14.145223349332808
leaf_count=21 20 20 38 27 23 20 42 129 76
internal_value=8.62536e-05 -0.0338904 0.113764 -0.0400983 -0.0163257 0.135572 -0.0447005 -0.0490824 -0.0490128
internal_weight=83.8123 64.5263 19.286 60.1938 16.5092 14.6432 11.6205 43.6845 38.4307
internal_count=416 337 79 317 85 58 62 232 205
is_linear=0
shrinkage=0.05


Tree=13
num_leaves=11
num_cat=0
split_feature=6 6 1 3 0 2 5 3 3 0
split_gain=202.239 1.08274 0.0929913 0.00889645 9.33368e-05 6.16949e-05 7.40308e-05 1.70127e-05 1.89159e-05 1.10021e-05
threshold=-237.16412213740452 -94.793893129770908 -176.89319545898431 -117.42840882568358 35.500000000000007 62.728083496093753 -141.74427480916026 -2.4349030883789067 -13.40393799438476 17.500000000000004
decision_type=2 2 2 2 2 2 2 2 2 2
left_child=2 -2 -1 -4 7 6 -6 8 -3 -9
right_child=1 4 3 -5 5 -7 -8 9 -10 -11
leaf_value=0.1510870837497536 -0.017982309241466984 -0.046989498984260691 0.15815206630495232 0.16102486397872764 -0.047001935766484017 -0.046971512964770465 -0.047218903952747575 -0.046888226721391285 -0.047124522102004962 -0.046981681937417953
leaf_weight=4.8950504809617987 3.4135740399360648 9.8104438185691798 6.3771307468414298 4.6672833263874045 5.3868653476238313 5.5282120257616034 14.552225679159163 5.1681147813797024 3.5262098014354715 8.0617983937263471
leaf_count=21 21 62 27 20 34 35 90 33 22 51
internal_value=-0.000139256 -0.0452613 0.156824 0.159366 -0.0470509 -0.0471193 -0.0471603 -0.0469853 -0.0470252 -0.0469452
internal_weight=71.3869 55.4474 15.9395 11.0444 52.0339 25.4673 19.9391 26.5666 13.3367 13.2299
internal_count=416 348 68 47 327 159 124 168 84 84
is_linear=0
shrinkage=0.05


Tree=14
num_leaves=12
num_cat=0
split_feature=1 0 6 3 3 6 0 0 1 3 1
split_gain=100.407 60.8753 6.85707 5.42162 3.86104 0.345034 0.150943 0.00012632 0.000168557 0.000105797 4.1774e-05
threshold=-214.91192072143548 23.500000000000004 21.297709923664137 4.3562499206542968 54.557870330810552 70.782442748091668 16.500000000000004 25.500000000000004 -183.29529069824216 13.947421771240238 -159.88957526855467
decision_type=2 2 2 2 2 2 2 2 2 2 2
left_child=1 2 6 5 7 -3 -1 -2 9 -9 -10
right_child=4 3 -4 -5 -6 -7 -8 8 10 -11 -12
leaf_value=-0.049868291537907922 -0.049002483979559974 0.12311126439572798 0.033929325660678994 0.073457671038646172 -0.0048809105961730255 0.13816316173943374 -0.036698132230942405 -0.0495429157168608 -0.049232685373841581 -0.049281476993781485 -0.04909813294012793
leaf_weight=4.9433773756027204 5.2445740252733222 6.1378163397312226 4.1381532400846472 5.1314143389463416 5.5003496855497351 10.027310788631437 3.8855728656053543 6.5998048484325365 14.8516778498888 9.3545053303241712 9.4319170713424736
leaf_count=25 28 24 20 22 27 39 20 34 78 49 50
internal_value=3.72561e-05 0.0662298 -0.0191798 0.118234 -0.0444483 0.132448 -0.0440722 -0.0492333 -0.0492634 -0.0493896 -0.0491804
internal_weight=85.2465 34.2636 12.9671 21.2965 50.9828 16.1651 8.82895 45.4825 40.2379 15.9543 24.2836
internal_count=416 150 65 85 266 63 45 239 211 83 128
is_linear=0
shrinkage=0.05


Tree=15
num_leaves=15
num_cat=0
split_feature=3 1 3 1 5 0 6 4 3 1 1 5 1 1
split_gain=77.4097 63.3155 5.86641 20.3339 2.40027 2.15111 0.103882 0.00352684 0.000562326 0.00036512 0.000227168 6.46254e-05 3.64313e-05 9.93749e-06
threshold=13.947421771240238 -205.65833130493161 -8.0193784606933587 -214.91192072143548 194.71755725190846 39.500000000000007 96.190839694656674 -138.73282442748086 -16.110582971191402 -226.62315814208984 -225.28240521240227 -113.87786259541987 -155.19095451049796 -176.89319545898431
decision_type=2 2 2 2 2 2 2 2 2 2 2 2 2 2
left_child=2 5 8 9 6 10 -3 -8 11 -4 -2 13 -13 -1
right_child=1 4 3 -5 -6 -7 7 -9 -10 -11 -12 12 -14 -15
leaf_value=-0.049152078117949138 -0.049003834507273539 0.11136603665481307 -0.049359920694507391 0.074750994579186311 0.078202906173672163 -0.005546563949804793 0.12059184826496179 0.11885199739365684 -0.049554406868408618 -0.049958356334850018 -0.049543308884868423 -0.049007760967400976 -0.048847503110395984 -0.049066457719719014
leaf_weight=6.4383191019296646 3.9363240003585815 5.5438293516635957 7.0934986621141425 4.678509682416915 5.1862212419509879 4.3974236845970154 5.5415512621402758 6.1400707960128749 6.0073238462209728 3.9783207029104224 3.8698419183492643 12.182573169469833 5.0025117397308358 7.1551911830902082
leaf_count=34 21 20 37 20 20 21 20 22 31 20 20 65 27 38
internal_value=7.11247e-05 0.0581243 -0.0381791 -0.0126449 0.108024 -0.0335156 0.117002 0.119677 -0.0491119 -0.049575 -0.0492713 -0.0490255 -0.0489611 -0.049107
internal_weight=87.1515 34.6153 52.5362 15.7503 22.4117 12.2036 17.2255 11.6816 36.7859 11.0718 7.80617 30.7786 17.1851 13.5935
internal_count=416 144 272 77 82 62 62 42 195 57 41 164 92 72
is_linear=0
shrinkage=0.05


Tree=16
num_leaves=10
num_cat=0
split_feature=2 3 6 5 0 5 5 1 4
split_gain=186.114 1.02384 0.217662 0.0819905 0.00115206 0.0007914 8.78681e-05 0.000163392 4.67043e-05
threshold=49.649756927490238 -106.36600005493163 284.13358778625962 167.04198473282443 32.500000000000007 240.37022900763358 -146.7519083969465 -184.55344367065425 143.70992366412224
decision_type=2 2 2 2 2 2 2 2 2
left_child=2 -2 5 4 -3 6 8 -8 -1
right_child=1 3 -4 -5 -6 -7 7 -9 -10
leaf_value=-0.048212476054606268 0.10035195982052519 0.12354298562578435 -0.036303314378534533 0.13045231676158683 0.12258636776533682 -0.049032527339049774 -0.0484262180036409 -0.048054293166548967 -0.04840576445890777
leaf_weight=24.369656533002857 5.3732227683067348 6.0204515457153338 4.0256648659706107 5.3032229393720618 6.5948540270328522 3.9374539405107489 19.352160021662716 3.4847158640623084 3.5850084125995627
leaf_count=138 21 22 22 20 24 21 108 20 20
internal_value=-0.000109906 0.119495 -0.0475243 0.125236 0.123043 -0.0483496 -0.0482967 -0.0483695 -0.0482373
internal_weight=82.0464 23.2918 58.7547 17.9185 12.6153 54.729 50.7915 22.8369 27.9547
internal_count=416 87 329 66 46 307 286 128 158
is_linear=0
shrinkage=0.05


Tree=17
num_leaves=12
num_cat=0
split_feature=0 3 4 0 3 6 2 1 3 3 1
split_gain=111.596 14.6488 13.5671 3.21167 7.9166 0.493986 0.0105355 0.00216195 0.0045515 0.000135173 4.72058e-05
threshold=23.500000000000004 3.6834792541503929 -407.09160305343488 33.500000000000007 -5.2923827697753891 25.931297709923708 12.12184300537109 -205.65833130493161 5.98310994873047 35.207932513427735 -196.19046083984369
decision_type=2 2 2 2 2 2 2 2 2 2 2
left_child=1 -1 -2 4 10 6 -3 8 -5 -9 -4
right_child=2 5 3 7 -6 -7 -8 9 -10 -11 -12
leaf_value=0.026724780468631949 0.049097091102272561 0.12383511592723094 -0.048548346831122142 -0.04836452304482905 0.029462917907695049 0.10680484276979788 0.12687768000489472 -0.048462841106674058 -0.050531514019767146 -0.048202294442578487 -0.048322207944667413
leaf_weight=5.7065328955650356 4.446678712964057 5.4666896164417285 4.1697482466697684 5.899336218833918 5.0146984159946433 5.1857841312885276 5.933299332857132 25.737186342477806 4.1122573614120483 6.1717692613601676 5.1678613871335974
leaf_count=26 20 20 23 33 25 20 22 143 20 35 29
internal_value=0.000146318 0.0958243 -0.0349805 -0.0416243 -0.0212098 0.119599 0.125419 -0.0486136 -0.0492546 -0.0484124 -0.0484232
internal_weight=83.0118 22.2923 60.7195 56.2729 14.3523 16.5858 11.4 41.9205 10.0116 31.909 9.33761
internal_count=416 88 328 308 77 62 42 231 53 178 52
is_linear=0
shrinkage=0.05


Tree=18
num_leaves=9
num_cat=0
split_feature=6 0 4 4 6 0 2 3
split_gain=170.517 1.12504 0.0785035 0.096824 0.000139771 9.50434e-05 9.85974e-05 3.39058e-05
threshold=-237.16412213740452 62.500000000000007 -177.60687022900751 -9.2480916030533944 -90.690839694656447 35.500000000000007 62.728083496093753 5.98310994873047
decision_type=2 2 2 2 2 2 2 2
left_child=2 4 -1 -4 -2 7 -7 -6
right_child=1 -3 3 -5 5 6 -8 -9
leaf_value=0.14010345332894414 -0.046957408969172332 -0.016414964684640376 0.12777240090951755 0.13688009445987961 -0.046604799071740435 -0.046754606455039871 -0.04649455060831819 -0.046487174312550505
leaf_weight=5.6088556945323971 3.3061251789331427 3.2806904613971701 5.1568586528301248 6.7218930423259708 14.428972095251085 16.804445132613186 4.6542751789093009 10.647498130798338
leaf_count=22 21 21 20 26 95 109 31 71
internal_value=-0.000195398 -0.0447764 0.135228 0.132926 -0.0466433 -0.046621 -0.0466982 -0.0465549
internal_weight=70.6096 53.122 17.4876 11.8788 49.8413 46.5352 21.4587 25.0765
internal_count=416 348 68 46 327 306 140 166
is_linear=0
shrinkage=0.05


Tree=19
num_leaves=12
num_cat=0
split_feature=1 0 2 2 3 0 4 0 1 6 1
split_gain=89.301 49.6103 6.71648 4.64928 3.81348 0.290988 0.145149 0.000238572 0.000317068 0.000151426 6.91261e-05
threshold=-214.91192072143548 23.500000000000004 7.6949641357421887 6.2560489379882833 54.557870330810552 35.500000000000007 -64.763358778625971 23.500000000000004 -183.29529069824216 -8.0801526717557586 -159.88957526855467
decision_type=2 2 2 2 2 2 2 2 2 2 2
left_child=1 2 -1 5 7 -3 -4 -2 9 -9 -10
right_child=4 3 6 -5 -6 -7 -8 8 10 -11 -12
leaf_value=0.033499342823383939 -0.048263079391570748 0.11640134547393699 -0.036625925434694978 0.077564010552605603 -0.0042325388337740568 0.13111500365316414 -0.049711254948771731 -0.048593655488377047 -0.048616980563631979 -0.048935233089447271 -0.048441302621876271
leaf_weight=4.1833800375461569 4.0719339847564688 6.8320251405239123 3.8631329685449591 9.2372125834226591 5.4420127421617499 6.6126285493373871 4.6947409659624091 4.542891040444375 14.391173303127287 11.353218376636498 9.1658246368169838
leaf_count=21 23 25 20 35 27 25 24 25 79 61 51
internal_value=5.29639e-05 0.0605259 -0.018423 0.104874 -0.0436936 0.123638 -0.0438044 -0.0486275 -0.0486651 -0.0488376 -0.0485486
internal_weight=84.3902 35.4231 12.7413 22.6819 48.9671 13.4447 8.55787 43.525 39.4531 15.8961 23.557
internal_count=416 150 65 85 266 50 44 239 216 86 130
is_linear=0
shrinkage=0.05


Tree=20
num_leaves=11
num_cat=0
split_feature=3 1 6 0 5 3 3 1 3 1
split_gain=69.6248 62.3212 4.48545 2.58637 2.11519 0.876981 0.0878357 0.00154461 0.000551509 0.000108906
threshold=11.177330450439454 -205.65833130493161 147.4503816793893 41.500000000000007 194.71755725190846 -4.0306384948730463 28.978219793701175 -223.77286106567382 -15.625757135009763 -189.65668450927731
decision_type=2 2 2 2 2 2 2 2 2 2
left_child=2 3 5 7 6 8 -3 -2 9 -1
right_child=1 4 -4 -5 -6 -7 -8 -9 -10 -11
leaf_value=-0.048593242718740076 -0.048360527644344793 0.11052286192420735 0.0028088363461729392 -0.00095169169130638177 0.071393718323099375 -0.029525740559335208 0.10368096481831648 -0.049653301656709545 -0.048941250712381035 -0.048357187641434235
leaf_weight=6.1758073866367331 5.716975286602973 8.9348237514495903 5.4851211011409751 3.9826797246932975 5.3861966580152503 7.3638294339179984 9.8759314715862256 3.8777631372213355 5.760364934802058 23.397800445556641
leaf_count=34 32 31 26 19 20 38 34 20 31 131
internal_value=8.94575e-05 0.0509123 -0.0397545 -0.0348233 0.0990203 -0.0452224 0.106931 -0.048883 -0.0484937 -0.0484065
internal_weight=85.9573 37.7744 48.1829 13.5774 24.197 42.6978 18.8108 9.59474 35.334 29.5736
internal_count=416 156 260 71 85 234 65 52 196 165
is_linear=0
shrinkage=0.05


Tree=21
num_leaves=11
num_cat=0
split_feature=2 6 5 2 3 5 1 0 0 0
split_gain=162.466 0.896334 0.222219 0.0793715 0.00242078 0.000224891 0.000274208 0.000355247 6.10415e-05 6.76972e-05
threshold=49.649756927490238 -40.954198473282439 284.38549618320621 117.88450424194335 -77.386583160400377 -146.7519083969465 -183.29529069824216 41.500000000000007 19.500000000000004 25.500000000000004
decision_type=2 2 2 2 2 2 2 2 2 2
left_child=2 -2 5 -3 -5 8 7 -7 -1 -10
right_child=1 3 -4 4 -6 6 -8 -9 9 -11
leaf_value=-0.047545607687735671 0.089745627306057743 0.11744397932680375 -0.035057366554254295 0.11111796210516652 0.10975603619322601 -0.047822427417350655 -0.047517718735871572 -0.048247307677413476 -0.047928819315177756 -0.047696974579984064
leaf_weight=5.1701891124248531 5.6464316993951824 5.5987959951162365 3.6600328087806693 5.7591096162796056 7.5273413062095589 13.460215389728551 3.823593705892562 7.7536113560199729 3.7900527417659786 18.603301405906677
leaf_count=31 21 20 20 20 26 79 23 44 22 110
internal_value=-0.000150821 0.107225 -0.0469701 0.112451 0.110346 -0.047799 -0.0479075 -0.0479777 -0.0477005 -0.0477362
internal_weight=80.7927 24.5317 56.261 18.8852 13.2865 52.601 25.0374 21.2138 27.5635 22.3934
internal_count=416 87 329 66 46 309 146 123 163 132
is_linear=0
shrinkage=0.05


Tree=22
num_leaves=12
num_cat=0
split_feature=0 3 4 0 3 6 0 1 3 0 1
split_gain=97.208 12.046 11.0989 3.19793 7.52175 0.429729 0.00932484 0.00222673 0.00420926 0.00015152 6.1247e-05
threshold=23.500000000000004 3.6834792541503929 -378.56106870229002 33.500000000000007 -5.2923827697753891 25.931297709923708 16.500000000000004 -205.65833130493161 5.98310994873047 48.500000000000007 -196.19046083984369
decision_type=2 2 2 2 2 2 2 2 2 2 2
left_child=1 -1 -2 4 10 6 -3 8 -5 -9 -4
right_child=2 5 3 7 -6 -7 -8 9 -10 -11 -12
leaf_value=0.024357627602526744 0.036626910679166826 0.11122462215014753 -0.048021684867860383 -0.047849098564385927 0.028378334615321729 0.09570044396959676 0.11401010826062573 -0.047979993714741966 -0.04997048476260009 -0.047753373519146269 -0.047758362528506203
leaf_weight=5.8351803421974209 5.065518081188201 6.043311536312105 3.9985257536172858 5.6541680246591515 5.0697146207094184 5.4665296971797934 5.975270539522171 13.140222057700162 3.9873348921537399 16.813645377755165 4.9320875704288474
leaf_count=26 23 21 23 33 25 20 21 76 20 99 29
internal_value=0.000211691 0.0865635 -0.0341168 -0.040803 -0.0202634 0.107323 0.112609 -0.0480655 -0.0487264 -0.0478528 -0.0478763
internal_weight=81.9815 23.3203 58.6612 53.5957 14.0003 17.4851 12.0186 39.5954 9.6415 29.9539 8.93061
internal_count=416 88 328 305 77 62 42 228 53 175 52
is_linear=0
shrinkage=0.05


Tree=23
num_leaves=11
num_cat=0
split_feature=6 0 1 1 2 5 3 6 3 0
split_gain=146.833 1.1294 0.0712131 0.0111773 0.000143349 0.000152939 0.000209294 2.70331e-05 1.97667e-05 4.50875e-06
threshold=-237.16412213740452 62.500000000000007 -176.89319545898431 -157.12307525024411 62.728083496093753 -146.7519083969465 12.139799517822269 -40.954198473282439 -59.877786419677726 30.500000000000004
decision_type=2 2 2 2 2 2 2 2 2 2
left_child=2 4 -1 -4 5 7 -7 -2 9 -6
right_child=1 -3 3 -5 8 6 -8 -9 -10 -11
leaf_value=0.1148691304538674 -0.046302114001554678 -0.015638730936835168 0.120245527065202 0.12320010420374726 -0.046082882584933059 -0.046577945940126694 -0.046251939068367845 -0.046147995488023161 -0.045976477102480276 -0.046159097566435332
leaf_weight=5.7445365488529232 3.6674028635025051 3.2169810831546775 7.2147074043750772 5.7538721859455082 3.1482526957988721 8.4549557715654426 11.785786226391791 12.6925518810749 2.8230649381875983 5.0583637356758118
leaf_count=21 25 21 26 21 22 56 81 88 20 35
internal_value=-0.000242444 -0.044312 0.119504 0.121556 -0.0462486 -0.0462962 -0.0463881 -0.0461825 -0.0460906 -0.0461299
internal_weight=69.5605 50.8474 18.7131 12.9686 47.6304 36.6007 20.2407 16.36 11.0297 8.20662
internal_count=416 348 68 47 327 250 137 113 77 57
is_linear=0
shrinkage=0.05


Tree=24
num_leaves=12
num_cat=0
split_feature=1 0 6 3 3 5 5 0 1 4 1
split_gain=79.546 40.9737 6.45437 3.95891 3.73702 0.230071 0.166459 0.000299596 0.000475438 0.000256349 0.000126495
threshold=-214.91192072143548 23.500000000000004 21.297709923664137 4.3562499206542968 54.557870330810552 -136.55725190839695 -205.12977099236639 27.500000000000004 -190.96391861572263 -117.87022900763365 -159.88957526855467
decision_type=2 2 2 2 2 2 2 2 2 2 2
left_child=1 2 6 5 7 -3 -1 -2 9 -9 -10
right_child=4 3 -4 -5 -6 -7 -8 8 10 -11 -12
leaf_value=-0.034975537990571584 -0.047704714422757394 0.11013443798011456 0.033210999586449484 0.057636124113347023 -0.0038548760083699329 0.098692148946820907 -0.049202812690880116 -0.048172906093887663 -0.048062422242974946 -0.04869315820548642 -0.047825747978573377
leaf_weight=3.6451392620801917 5.5733471661806098 10.694920480251314 4.1607535332441321 5.6901186704635611 5.4068895876407614 7.455752998590472 4.7155252844095221 5.4429027736186981 18.126451298594475 4.1909572333097405 8.1993253976106697
leaf_count=20 33 37 20 22 27 26 25 31 104 23 48
internal_value=4.80835e-05 0.0555614 -0.0176757 0.0940262 -0.0429556 0.105434 -0.0429999 -0.0480458 -0.0480987 -0.0483992 -0.0479887
internal_weight=83.3021 36.3622 12.5214 23.8408 46.9399 18.1507 8.36066 41.533 35.9596 9.63386 26.3258
internal_count=416 150 65 85 266 63 45 239 206 54 152
is_linear=0
shrinkage=0.05


Tree=25
num_leaves=11
num_cat=0
split_feature=3 1 5 6 3 0 6 1 3 1
split_gain=62.6447 53.6862 4.58099 4.32495 0.87513 0.792224 0.126767 0.00258036 0.000656879 0.000163952
threshold=11.177330450439454 -210.38328828124995 142.77099236641223 147.4503816793893 -4.0306384948730463 34.500000000000007 119.76335877862599 -222.91214556884762 -15.625757135009763 -189.65668450927731
decision_type=2 2 2 2 2 2 2 2 2 2
left_child=3 7 5 4 8 -3 -7 -2 9 -1
right_child=1 2 -4 -5 -6 6 -8 -9 -10 -11
leaf_value=-0.048053023135262656 -0.047840565648422449 0.080213962477144921 0.050083938472267546 0.0028146403895454287 -0.028695555240770849 0.10813069037923095 0.098644144443316747 -0.049428128023520278 -0.048414959111319156 -0.04775681121206328
leaf_weight=5.9120489358901969 6.1572986841201782 5.5651292651891771 7.2788100540637961 5.4663341343402854 7.1839583516120902 5.771455079317092 9.0331802070140821 4.3804056346416456 5.5308670401573208 22.261518090963364
leaf_count=34 36 20 27 26 38 20 30 23 31 131
internal_value=0.000109306 0.0475304 0.0841307 -0.0389555 -0.0445397 0.0962968 0.102342 -0.0485005 -0.0479168 -0.047819
internal_weight=84.541 38.1863 27.6486 46.3547 40.8884 20.3698 14.8046 10.5377 33.7044 28.1736
internal_count=416 156 97 260 234 70 50 59 196 165
is_linear=0
shrinkage=0.05


Tree=26
num_leaves=11
num_cat=0
split_feature=2 5 2 0 0 3 0 2 6 5
split_gain=143.282 2.16175 0.0135084 0.00610252 0.000333433 0.000671867 0.000546648 0.000345621 0.000420548 8.64734e-05
threshold=62.728083496093753 326.33206106870233 115.80514010009767 30.500000000000004 35.500000000000007 -2.1547814941406229 28.500000000000004 37.451299468994144 -159.93129770992365 -88.03053435114505
decision_type=2 2 2 2 2 2 2 2 2 2
left_child=1 4 -2 -4 5 6 -1 8 -6 -7
right_child=2 -3 3 -5 7 9 -8 -9 -10 -11
leaf_value=-0.047995721053369328 0.10317171973549051 -0.006920076009080435 0.10167586146192209 0.099768982819968155 -0.047105036787591897 -0.047077298154635343 -0.047160170965854536 -0.047891304478655847 -0.047541402079593828 -0.046790264936726188
leaf_weight=3.9709390997886684 6.5230485498905209 3.5324628800153723 6.8579550087451961 10.808021157979963 8.3155826032161766 11.483288615942001 3.8606387227773666 4.0829720646142951 16.432524263858795 3.4011361747980091
leaf_count=23 22 19 23 36 52 72 24 24 99 22
internal_value=-0.000211 -0.0447591 0.101227 0.100509 -0.0473522 -0.047209 -0.0475838 -0.0474651 -0.0473948 -0.0470117
internal_weight=79.2686 55.0795 24.189 17.666 51.5471 22.716 7.83158 28.8311 24.7481 14.8844
internal_count=416 335 81 59 316 141 47 175 151 94
is_linear=0
shrinkage=0.05


Tree=27
num_leaves=11
num_cat=0
split_feature=0 4 3 1 3 6 1 0 1 1
split_gain=85.2996 10.488 10.1936 3.27343 6.78001 0.337015 0.195739 0.00549186 0.00402772 0.000325178
threshold=23.500000000000004 -378.56106870229002 3.6834792541503929 -218.92340560302731 1.0000000180025095e-35 25.931297709923708 -234.04518328857418 16.500000000000004 -200.65325273437495 -181.28775260620114
decision_type=2 2 2 2 2 2 2 2 2 2
left_child=2 -2 -1 4 6 7 -3 -4 -5 -10
right_child=1 3 5 8 -6 -7 -8 -9 9 -11
leaf_value=0.022218948413748735 0.034796986416587031 -0.032416344206414101 0.10116257987538724 -0.048806707503633306 0.034914217816810152 0.087511379952973548 -0.047496295057270349 0.10325895337319219 -0.047591032235163588 -0.047260069138758937
leaf_weight=5.950673162937167 5.145428553223609 3.3135602921247473 6.2713902890682238 5.8505195081233969 4.0797152817249289 5.6722853183746329 6.1379756778478614 6.2250946462154388 11.652104377746577 20.441863477230076
leaf_count=26 23 20 21 32 20 20 37 21 70 126
internal_value=0.000275087 -0.0332671 0.0790165 -0.0400707 -0.0189565 0.097619 -0.0422095 0.102207 -0.0476002 -0.0473802
internal_weight=80.7406 56.6212 24.1194 51.4757 13.5313 18.1688 9.45154 12.4965 37.9445 32.094
internal_count=416 328 88 305 77 62 57 42 228 196
is_linear=0
shrinkage=0.05


Tree=28
num_leaves=9
num_cat=0
split_feature=6 6 4 4 0 0 2 3
split_gain=128.293 1.16443 0.0725338 0.0816773 0.000335699 0.000166316 0.000142849 0.000104231
threshold=-237.16412213740452 -94.793893129770908 -194.63358778625943 -12.549618320610675 58.500000000000007 35.500000000000007 62.728083496093753 -2.4349030883789067
decision_type=2 2 2 2 2 2 2 2
left_child=2 -2 -1 -4 5 7 -7 -3
right_child=1 4 3 -5 -6 6 -8 -9
leaf_value=0.11223852287898491 -0.014244272808765722 -0.045860895182233082 0.1010158486843365 0.1087853697933451 -0.046312476381326129 -0.046029894326794642 -0.045685738994739246 -0.045648133001617505
leaf_weight=5.7306175529956844 3.105426311492919 11.666778773069382 5.789426565170289 8.1366776823997462 4.2394511997699729 14.435737133026125 3.8111673742532721 11.362711131572723
leaf_count=20 21 84 20 28 29 102 28 84
internal_value=-0.000288959 -0.0438677 0.107504 0.105555 -0.0458888 -0.0458453 -0.045958 -0.0457559
internal_weight=68.278 48.6213 19.6567 13.9261 45.5158 41.2764 18.2469 23.0295
internal_count=416 348 68 48 327 298 130 168
is_linear=0
shrinkage=0.05


Tree=29
num_leaves=14
num_cat=0
split_feature=1 0 3 3 2 0 2 1 0 6 1 3 2
split_gain=71.4308 35.6322 13.0474 3.66922 0.8915 0.335516 0.145004 0.000425237 0.000619211 0.000402408 0.000113807 0.000120075 5.84304e-05
threshold=-214.91192072143548 18.500000000000004 4.3562499206542968 54.557870330810552 11.976993804931643 31.500000000000004 13.506888665771486 -183.29529069824216 35.500000000000007 14.977099236641266 -159.88957526855467 -102.6561845825195 62.728083496093753
decision_type=2 2 2 2 2 2 2 2 2 2 2 2 2
left_child=1 6 4 7 5 -3 -1 8 -2 -10 12 -12 -9
right_child=3 2 -4 -5 -6 -7 -8 10 9 -11 11 -13 -14
leaf_value=-0.035313209929365007 -0.047263987724469207 0.11474874731624085 0.025695454518361818 -0.0034806330064485747 0.08236959844519276 0.099305391526957942 -0.048892155410847626 -0.04756186035473868 -0.047509393755650484 -0.048131641048211632 -0.047424781634943458 -0.047060806029666072 -0.047354710466828161
leaf_weight=3.6709894984960547 5.3416077047586468 5.8950516879558625 8.655092924833296 5.3715864866971961 5.8020181804895392 8.7183343768119794 4.2330802977085114 7.5069727450609207 3.9786254912614805 7.4888589680194855 4.4556841999292374 4.6107487380504608 6.2286297529935837
leaf_count=20 33 21 37 27 20 29 23 45 24 43 27 29 38
internal_value=6.10526e-05 0.0515472 0.0771412 -0.0422592 0.0989516 0.105535 -0.0425855 -0.0475178 -0.0477086 -0.0479158 -0.0473772 -0.0472397 -0.0474679
internal_weight=81.9573 36.9746 29.0705 44.9827 20.4154 14.6134 7.90407 39.6111 16.8091 11.4675 22.802 9.06643 13.7356
internal_count=416 150 107 266 70 50 43 239 100 67 139 56 83
is_linear=0
shrinkage=0.05


Tree=30
num_leaves=13
num_cat=0
split_feature=3 1 6 1 4 3 5 6 5 1 3 1
split_gain=56.2898 47.1201 5.30521 2.69138 1.78294 1.36927 1.81027 0.509791 0.136466 0.00153835 0.00120196 0.000229981
threshold=11.177330450439454 -205.65833130493161 211.38549618320619 -213.42033308715813 -184.17175572519082 -4.0306384948730463 -128.12595419847324 214.09541984732837 53.385496183206101 -222.91214556884762 -15.625757135009763 -189.65668450927731
decision_type=2 2 2 2 2 2 2 2 2 2 2 2
left_child=2 3 5 9 -3 10 -7 8 -6 -2 11 -1
right_child=1 4 -4 -5 7 6 -8 -9 -10 -11 -12 -13
leaf_value=-0.047548340645447204 -0.047308573657874609 0.059635339582322137 0.023779745547226984 0.0033217856454286752 0.091927217761383642 -0.048062003455158091 -0.00036660780233243668 0.078891677512308647 0.10202679654680918 -0.048641909246901066 -0.048045305192320482 -0.047197280828013027
leaf_weight=5.9859367758035651 5.8660365492105475 5.9072260856628409 3.207739681005477 3.5610582679510108 7.6635064184665733 3.9992800354957581 3.9586596041917792 6.0530122816562644 5.9350276291370392 3.4271828830242148 6.2211552709341076 21.143810376524925
leaf_count=36 36 20 14 16 25 23 20 20 20 19 36 131
internal_value=0.000103756 0.0444494 -0.0381618 -0.0336378 0.0837219 -0.0429718 -0.024336 0.0909623 0.0963351 -0.0478003 -0.0474185 -0.0472747
internal_weight=82.9296 38.4131 44.5166 12.8543 25.5588 41.3088 7.95794 19.6515 13.5985 9.29322 33.3509 27.1297
internal_count=416 156 260 71 85 246 43 65 45 55 203 167
is_linear=0
shrinkage=0.05


Tree=31
num_leaves=10
num_cat=0
split_feature=2 5 6 3 0 5 5 1 6
split_gain=127.794 0.696151 0.2302 0.064406 0.00508304 0.00143294 0.000395861 0.000438212 8.60661e-05
threshold=49.649756927490238 -33.874045801526698 284.13358778625962 -59.877786419677726 32.500000000000007 240.37022900763358 -146.7519083969465 -184.55344367065425 147.4503816793893
decision_type=2 2 2 2 2 2 2 2 2
left_child=2 -2 5 4 -3 6 8 -8 -1
right_child=1 3 -4 -5 -6 -7 7 -9 -10
leaf_value=-0.046716065015276316 0.075439837071943003 0.093709805930001236 -0.033838096014612594 0.09889226098288742 0.091785515402740436 -0.047857182074778258 -0.047078713652573545 -0.046420568730958754 -0.046429020717616898
leaf_weight=21.203578114509583 6.2696873545646694 6.4177221655845678 3.6323424428701392 5.9836648255586598 7.3760800957679749 3.5781444311141959 17.07339230179787 2.9690064936876324 2.9781964868307105
leaf_count=138 22 21 22 20 24 21 108 20 20
internal_value=-0.000276802 0.0899577 -0.0459727 0.0945601 0.0926808 -0.0468948 -0.0468169 -0.0469812 -0.0466807
internal_weight=77.4818 26.0472 51.4347 19.7775 13.7938 47.8023 44.2242 20.0424 24.1818
internal_count=416 87 329 65 45 307 286 128 158
is_linear=0
shrinkage=0.05


Tree=32
num_leaves=12
num_cat=0
split_feature=0 4 3 0 3 6 2 1 3 0 1
split_gain=75.6107 9.94962 8.68172 3.31679 7.074 0.319663 0.00546443 0.00366261 0.00587189 0.000238231 3.34225e-05
threshold=23.500000000000004 -378.56106870229002 3.6834792541503929 33.500000000000007 -5.2923827697753891 25.931297709923708 12.672509387207032 -205.65833130493161 5.98310994873047 48.500000000000007 -196.19046083984369
decision_type=2 2 2 2 2 2 2 2 2 2 2
left_child=2 -2 -1 4 10 6 -4 8 -5 -9 -3
right_child=1 3 5 7 -6 -7 -8 9 -10 -11 -12
leaf_value=0.020812883202679044 0.033259116117400719 -0.046930860744586314 0.093243375820087487 -0.046932310734706759 0.028664425165349811 0.080162546148640282 0.09530870770627943 -0.047037664438691722 -0.049506744077686959 -0.046739893472487179 -0.046726366357178244
leaf_weight=6.0241202563047436 5.2122658044099799 3.6151798218488684 6.4293783605098742 5.1853429377078957 5.0393040627241126 5.8461092710494986 6.3812757730484009 12.009434446692472 3.8664355874061584 15.241816878318785 4.4669686257839194
leaf_count=26 23 23 21 33 25 20 21 76 20 99 29
internal_value=0.000366254 -0.0324444 0.0730001 -0.0393734 -0.0178288 0.0898509 0.0942722 -0.0471606 -0.048032 -0.0468711 -0.0468178
internal_weight=79.3176 54.6367 24.6809 49.4245 13.1215 18.6568 12.8107 36.303 9.05178 27.2513 8.08215
internal_count=416 328 88 305 77 62 42 228 53 175 52
is_linear=0
shrinkage=0.05


Tree=33
num_leaves=11
num_cat=0
split_feature=0 3 1 6 0 2 5 3 3 0
split_gain=113.615 1.25132 0.0502035 0.00298321 0.000301075 0.000279608 0.000285677 9.8559e-05 0.000198195 2.34702e-05
threshold=72.500000000000014 -77.386583160400377 -173.61074498291012 -90.690839694656447 35.500000000000007 62.728083496093753 -141.74427480916026 -2.4349030883789067 -15.625757135009763 21.500000000000004
decision_type=2 2 2 2 2 2 2 2 2 2
left_child=3 2 -2 -1 7 6 -6 8 -5 -9
right_child=1 -3 -4 4 5 -7 -8 9 -10 -11
leaf_value=-0.047098657580305542 0.10433271104678575 0.073229079943214537 0.098533003247240014 -0.045341753664323567 -0.04542077880466084 -0.045313046593121881 -0.045893879369561186 -0.045221288266690932 -0.045786222474940297 -0.045373924983189901
leaf_weight=3.2267445027828208 5.8677873164415404 5.6113030016422263 10.247964650392532 7.2662980630993834 4.4576361775398263 4.518615558743476 11.228317022323608 6.3690215945243818 3.8302208185195949 4.1657190769910812
leaf_count=22 20 24 34 56 34 35 81 50 28 32
internal_value=-0.000351864 0.0935642 0.100645 -0.0456338 -0.0455208 -0.0456596 -0.0457594 -0.0453912 -0.0454952 -0.0452816
internal_weight=66.7896 21.7271 16.1158 45.0626 41.8358 20.2046 15.686 21.6313 11.0965 10.5347
internal_count=416 78 54 338 316 150 115 166 84 82
is_linear=0
shrinkage=0.05


Tree=34
num_leaves=11
num_cat=0
split_feature=1 0 2 3 5 2 1 3 6 0
split_gain=64.6453 34.1571 15.6043 4.41247 0.24976 0.187385 0.144486 0.00329012 0.000403255 0.000139888
threshold=-205.65833130493161 18.500000000000004 18.947711938476562 11.177330450439454 356.29389312977105 8.5065984985351566 -228.95151925659175 44.978669488525377 147.4503816793893 26.500000000000004
decision_type=2 2 2 2 2 2 2 2 2 2
left_child=1 5 3 6 7 -1 -3 8 9 -2
right_child=4 2 -4 -5 -6 -7 -8 -9 -10 -11
leaf_value=-0.033344296378648476 -0.046594904297121272 0.093952450068934226 -0.0027898052633974512 0.049701056524975626 -0.032635721666636218 -0.04823713599228905 0.10323009439121043 -0.048585798763022617 -0.047408315802775589 -0.046955620634916012
leaf_weight=3.4036840796470624 3.0205590277910259 13.190195456147196 6.3168933242559424 6.6537168174982062 3.2305898815393439 5.5661914050579071 6.154662653803828 3.5914237946271887 4.9004673659801474 24.393190249800682
leaf_count=20 20 44 27 28 19 32 21 20 30 155
internal_value=9.06856e-05 0.0437366 0.0676973 0.0848237 -0.045952 -0.0425859 0.0969042 -0.0471501 -0.0469906 -0.0469159
internal_weight=80.4216 41.2853 32.3155 25.9986 39.1362 8.96988 19.3449 35.9056 32.3142 27.4137
internal_count=416 172 120 93 244 52 65 225 205 175
is_linear=0
shrinkage=0.05


Tree=35
num_leaves=13
num_cat=0
split_feature=3 1 6 5 3 5 0 6 1 3 1 6
split_gain=50.8281 41.2606 5.0097 3.95795 1.36249 1.86463 0.582554 0.0959157 0.00281768 0.00118063 0.000250228 9.86107e-05
threshold=11.177330450439454 -210.38328828124995 211.38549618320619 142.77099236641223 -4.0306384948730463 -108.51526717557248 34.500000000000007 119.76335877862599 -221.19670007934565 -15.625757135009763 -189.65668450927731 -6.1717557251908062
decision_type=2 2 2 2 2 2 2 2 2 2 2 2
left_child=2 8 4 6 9 -6 -3 -8 11 10 -1 -2
right_child=1 3 -4 -5 5 -7 7 -9 -10 -11 -12 -13
leaf_value=-0.047056399542828038 -0.046705462057545173 0.069504527131137056 0.022356482536232292 0.041027116092082913 -0.047493894148102678 0.0015277542566706896 0.093068296480693924 0.084974265522901909 -0.048694958616692055 -0.047545813072269488 -0.046681170779239403 -0.047102633845455599
leaf_weight=5.7071170210838345 3.0706350952386856 5.7616039067506852 3.2402704805135718 7.6214614063501349 3.9699098616838455 3.793306663632392 6.0228430628776541 9.3303025364875776 3.406045660376547 5.9477805048227337 20.06019352376461 3.1826295405626297
leaf_count=36 20 20 14 27 24 19 20 30 19 36 131 20
internal_value=0.000113921 0.0418625 -0.0374098 0.0719133 -0.0423152 -0.0235407 0.0830618 0.0881495 -0.0475379 -0.0469108 -0.0467643 -0.0469076
internal_weight=81.1141 38.3955 42.7186 28.7362 39.4783 7.76322 21.1147 15.3531 9.65931 31.7151 25.7673 6.25326
internal_count=416 156 260 97 246 43 70 50 59 203 167 40
is_linear=0
shrinkage=0.05


Tree=36
num_leaves=10
num_cat=0
split_feature=2 5 6 6 0 5 5 4 4
split_gain=114.356 0.619195 0.233871 0.0600146 0.00717542 0.0012341 0.000513882 0.000509331 8.1794e-05
threshold=49.649756927490238 -33.874045801526698 284.13358778625962 42.492366412213734 31.500000000000004 240.37022900763358 -146.7519083969465 -122.19465648854954 143.70992366412224
decision_type=2 2 2 2 2 2 2 2 2
left_child=2 -2 5 4 -3 6 8 -8 -1
right_child=1 3 -4 -5 -6 -7 7 -9 -10
leaf_value=-0.046193510714156373 0.069889725675903763 0.087254582852422921 -0.033087573739296237 0.09193048132601303 0.084974753536381578 -0.047376489357754667 -0.046244255886667779 -0.04677831591887293 -0.046473954860982644
leaf_weight=19.989860072731972 6.3615166544914272 6.2001621723175067 3.5203899890184394 6.0955965816974631 7.7845362424850464 3.4238850176334372 7.0868455618619945 12.064288459718229 2.9886972755193701
leaf_count=138 22 20 22 20 25 21 49 79 20
internal_value=-0.000339092 0.0834836 -0.045504 0.0877902 0.0859855 -0.0464636 -0.0463894 -0.0465807 -0.04623
internal_weight=75.5158 26.4418 49.074 20.0803 13.9847 45.5536 42.1297 19.1511 22.9786
internal_count=416 87 329 65 45 307 286 128 158
is_linear=0
shrinkage=0.05


Tree=37
num_leaves=11
num_cat=0
split_feature=0 4 0 3 1 3 4 6 1 3
split_gain=67.2431 9.3968 7.83539 7.96375 3.33787 6.12753 0.216474 0.194675 0.0047897 0.000660689
threshold=23.500000000000004 -378.56106870229002 17.500000000000004 5.98310994873047 -218.92340560302731 -1.0000000180025095e-35 -38.625954198473295 -39.217557251908431 -200.65325273437495 -14.560337396240234
decision_type=2 2 2 2 2 2 2 2 2 2
left_child=2 -2 7 -4 5 6 -3 -1 -6 -10
right_child=1 4 3 -5 8 -7 -8 -9 9 -11
leaf_value=0.09809877430617403 0.031599176887911806 -0.046616056658461871 -0.013294550760937055 0.072836785538025459 -0.048083777419638332 0.033251150428265895 -0.02999538602260764 0.086326127946555531 -0.046281267562103448 -0.04676796630844824
leaf_weight=7.4344926476478577 5.2872620373964301 5.606414020061492 4.6706227213144285 6.3085762709379196 5.4931509047746614 4.1321760863065711 3.0113153010606757 6.6549308300018328 17.590104356408119 11.552532345056539
leaf_count=25 23 37 20 21 32 20 20 22 120 76
internal_value=0.000456611 -0.0316237 0.0678622 0.036196 -0.0386781 -0.016806 -0.0408083 0.0925381 -0.0467295 -0.0464742
internal_weight=77.7416 52.673 25.0686 10.9792 47.3857 12.7499 8.61773 14.0894 34.6358 29.1426
internal_count=416 328 88 41 305 77 57 47 228 196
is_linear=0
shrinkage=0.05


Tree=38
num_leaves=9
num_cat=0
split_feature=0 4 3 5 6 0 2 3
split_gain=101.435 1.05544 0.242981 0.21649 0.0025756 0.00039999 0.000374939 0.000141605
threshold=78.500000000000014 -2.4312977099237139 -102.6561845825195 -317.69465648854964 -90.690839694656447 35.500000000000007 62.728083496093753 -2.4349030883789067
decision_type=2 2 2 2 2 2 2 2
left_child=2 3 -1 -2 -4 7 -7 -6
right_child=1 -3 4 -5 5 6 -8 -9
leaf_value=-0.030083499097138439 0.091252803122024329 0.074281364544438622 -0.046684501450733475 0.10414328816390642 -0.045195138885408125 -0.045482998229359688 -0.044872710420645306 -0.044924210215537504
leaf_weight=2.7920607626438132 7.3842591643333435 8.4127025604248029 3.2333474382758132 5.8277783244848269 9.3409207761287689 15.192009113729002 3.0163908973336211 9.9713431745767593
leaf_count=21 24 31 23 20 74 116 25 82
internal_value=-0.00039477 0.0881243 -0.0443529 0.0969387 -0.0453305 -0.0452138 -0.0453819 -0.0450553
internal_weight=65.1708 21.6247 43.5461 13.212 40.754 37.5207 18.2084 19.3123
internal_count=416 75 341 44 320 297 141 156
is_linear=0
shrinkage=0.05


Tree=39
num_leaves=12
num_cat=0
split_feature=1 0 2 3 5 4 1 3 2 6 0
split_gain=58.4709 29.7954 13.622 3.96153 0.260292 0.193091 0.121125 0.00247364 0.000537143 0.000726207 0.00018051
threshold=-205.65833130493161 18.500000000000004 18.947711938476562 11.177330450439454 356.29389312977105 -81.423664122137396 -228.95151925659175 44.978669488525377 11.976993804931643 -159.93129770992365 27.500000000000004
decision_type=2 2 2 2 2 2 2 2 2 2 2
left_child=1 5 3 6 7 -1 -3 8 9 -2 -10
right_child=4 2 -4 -5 -6 -7 -8 -9 10 -11 -12
leaf_value=-0.032335336732768685 -0.046294700485094833 0.086986339403115023 -0.0033506705837146526 0.045516300619122818 -0.031536119398817161 -0.047767662174161729 0.095393995931113293 -0.047941909566068995 -0.046024340793725853 -0.047200870896643689 -0.046444152114192533
leaf_weight=3.2666432857513428 3.661205992102623 13.4194463044405 6.3263942897319785 6.8437300324439994 3.1013572365045539 5.3409860134124738 6.2924057394266155 3.4141227006912223 2.9718319401145008 5.5816621631383914 18.501892477273941
leaf_count=20 25 44 27 28 19 32 21 20 21 35 124
internal_value=8.37892e-05 0.0409046 0.0625835 0.0782912 -0.0454049 -0.041911 0.0896702 -0.0466651 -0.0465232 -0.0468419 -0.0463861
internal_weight=78.7217 41.4896 32.882 26.5556 37.2321 8.60763 19.7119 34.1307 30.7166 9.24287 21.4737
internal_count=416 172 120 93 244 52 65 225 205 60 145
is_linear=0
shrinkage=0.05


Tree=40
num_leaves=13
num_cat=0
split_feature=3 1 6 0 4 3 1 6 5 1 3 1
split_gain=45.8999 36.5619 4.72581 2.39629 1.58297 1.35066 2.32417 0.42623 0.111857 0.00351974 0.00107867 0.000248909
threshold=11.177330450439454 -205.65833130493161 211.38549618320619 42.500000000000007 -184.17175572519082 -4.0306384948730463 -224.69103740234371 214.09541984732837 53.385496183206101 -222.74455145263673 -15.625757135009763 -189.24727602539056
decision_type=2 2 2 2 2 2 2 2 2 2 2 2
left_child=2 3 5 9 -3 10 -7 8 -6 -2 11 -1
right_child=1 4 -4 -5 7 6 -8 -9 -10 -11 -12 -13
leaf_value=-0.046582435889547268 -0.046277721293577115 0.050354694713731211 0.020997095505769146 0.0013717813482849103 0.080403648241890613 -0.047418830314004054 0.0083495720161445974 0.068587715182820544 0.089432005338587583 -0.048371625723688583 -0.047054574594517902 -0.046202223212198967
leaf_weight=5.5777225494384792 5.1181265860795966 6.0449076592922202 3.267862692475318 3.6576037257909766 7.7745313346386009 4.2348480969667435 3.343031018972396 6.1572781205177298 6.1402774155139923 3.301589995622634 5.6684714108705547 18.85815517604351
leaf_count=37 35 20 14 17 25 26 17 20 20 19 36 130
internal_value=9.19445e-05 0.039519 -0.0366818 -0.0324195 0.0727856 -0.0416838 -0.0228162 0.0795409 0.0843876 -0.0470988 -0.0464332 -0.046289
internal_weight=79.1444 38.1943 40.9501 12.0773 26.117 37.6822 7.57788 20.0721 13.9148 8.41972 30.1043 24.4359
internal_count=416 156 260 71 85 246 43 65 45 54 203 167
is_linear=0
shrinkage=0.05


Tree=41
num_leaves=10
num_cat=0
split_feature=2 3 6 3 3 5 5 4 4
split_gain=102.832 0.594782 0.237085 0.0600885 0.00566403 0.00121666 0.000528119 0.000590619 0.000103187
threshold=49.649756927490238 -106.36600005493163 284.13358778625962 -57.428518121337873 -74.812816375732424 240.37022900763358 -146.7519083969465 -122.19465648854954 143.70992366412224
decision_type=2 2 2 2 2 2 2 2 2
left_child=2 -2 5 4 -3 6 8 -8 -1
right_child=1 3 -4 -5 -6 -7 7 -9 -10
leaf_value=-0.045772708569336351 0.064341304744503461 0.081272549656680015 -0.032370671490139669 0.086114079043166702 0.07926430439389498 -0.046980697460101244 -0.045806013117022711 -0.046396233108251625 -0.046094958642571647
leaf_weight=18.96203801035881 6.0986671894788769 7.1764391064643895 3.4134554564952841 6.4672475457191441 6.8740963935852051 3.2930467575788489 6.6987561583519009 11.541072532534601 2.8586535155773154
leaf_count=138 21 23 22 21 22 21 49 79 20
internal_value=-0.000405939 0.0780508 -0.0450579 0.0821258 0.08029 -0.0460568 -0.0459809 -0.0461795 -0.0458149
internal_weight=73.3835 26.6165 46.767 20.5178 14.0505 43.3536 40.0605 18.2398 21.8207
internal_count=416 87 329 66 45 307 286 128 158
is_linear=0
shrinkage=0.05


Tree=42
num_leaves=12
num_cat=0
split_feature=0 4 3 0 3 6 1 0 1 3 2
split_gain=60.0211 8.30194 6.80816 3.44211 6.80814 0.314542 0.199325 0.0140371 0.00463985 0.00568538 0.000305699
threshold=23.500000000000004 -366.98854961832046 3.6834792541503929 33.500000000000007 4.3562499206542968 25.931297709923708 -228.50859194946284 16.500000000000004 -204.87303316040035 5.98310994873047 11.976993804931643
decision_type=2 2 2 2 2 2 2 2 2 2 2
left_child=2 -2 -1 4 6 7 -3 -4 9 -5 -10
right_child=1 3 5 8 -6 -7 -8 -9 10 -11 -12
leaf_value=0.017764299479198366 0.026442127518652905 -0.030040508354417961 0.080941114916887366 -0.046139687641199217 0.040375024464563966 0.068794495840640291 -0.046105730229054231 0.084217957880056149 -0.046244267337560416 -0.048675051453166404 -0.045863338688273608
leaf_weight=6.1571159809827831 5.6315759271383277 3.008507013320922 6.5449239015579241 4.7330526858568138 3.7907579094171515 6.0574466139078131 5.3896775841712943 6.5278295874595642 7.7934942469000879 4.1498483270406723 16.245197080075741
leaf_count=26 25 20 21 33 18 20 38 21 54 23 117
internal_value=0.000563747 -0.0307979 0.0634947 -0.0379437 -0.015245 0.0782131 -0.0403506 0.0825774 -0.0463477 -0.0473241 -0.0459868
internal_weight=76.0294 50.7421 25.2873 45.1105 12.1889 19.1302 8.39818 13.0728 32.9216 8.8829 24.0387
internal_count=416 328 88 303 76 62 58 42 227 56 171
is_linear=0
shrinkage=0.05


Tree=43
num_leaves=11
num_cat=0
split_feature=0 5 1 6 0 2 5 3 0 0
split_gain=91.0284 1.39737 0.0318709 0.00229177 0.000333366 0.000333566 0.000361599 0.000126423 0.000325221 4.8426e-05
threshold=72.500000000000014 -71.656488549618402 -176.89319545898431 -90.690839694656447 35.500000000000007 62.728083496093753 -141.74427480916026 5.98310994873047 21.500000000000004 21.500000000000004
decision_type=2 2 2 2 2 2 2 2 2 2
left_child=3 2 -2 -1 7 6 -6 8 -5 -9
right_child=1 -3 -4 4 5 -7 -8 9 -10 -11
leaf_value=-0.04633177012526668 0.089366918517467531 0.05568845160672007 0.084919409733257428 -0.045342963440209154 -0.044745457601331647 -0.044634601876382532 -0.045304818297481259 -0.044493567435856723 -0.044701910369720738 -0.044744973445896952
leaf_weight=2.937757857143878 6.1083679944276854 4.6546451300382605 11.827849537134171 2.5527520552277592 4.012916050851346 4.0563627108931533 10.318134054541588 5.0933745950460416 8.7946738451719266 3.0699196606874466
leaf_count=22 20 20 38 20 34 35 81 45 75 26
internal_value=-0.000434368 0.0800992 0.0864341 -0.0449864 -0.0448821 -0.0450349 -0.0451482 -0.0447382 -0.0448461 -0.0445881
internal_weight=63.4268 22.5909 17.9362 40.8359 37.8981 18.3874 14.3311 19.5107 11.3474 8.16329
internal_count=416 78 58 338 316 150 115 166 95 71
is_linear=0
shrinkage=0.05


Tree=44
num_leaves=12
num_cat=0
split_feature=1 0 2 3 5 2 2 3 2 6 0
split_gain=53.2352 26.0557 12.0577 3.57351 0.265708 0.199025 0.108806 0.00215754 0.00061299 0.000798418 0.000155087
threshold=-205.65833130493161 18.500000000000004 18.947711938476562 11.177330450439454 356.29389312977105 8.5065984985351566 -2.7784710266113297 46.342167333984385 11.976993804931643 -159.93129770992365 27.500000000000004
decision_type=2 2 2 2 2 2 2 2 2 2 2
left_child=1 5 3 6 7 -1 -3 8 9 -2 -10
right_child=4 2 -4 -5 -6 -7 -8 -9 10 -11 -12
leaf_value=-0.031247101562441749 -0.045842518609089854 0.088558010006017068 -0.0038313193794894647 0.042147216958369829 -0.030673090254698349 -0.047270895988452515 0.080883317420086157 -0.047477317159258903 -0.045596092585737581 -0.046811858303592475 -0.045996190768850448
leaf_weight=3.1312841624021512 3.4622191190719604 7.2830842137336758 6.3259443938732138 6.9953927248716345 3.0004080757498732 5.0843382328748703 12.621186450123789 3.1118537485599509 2.8099115565419224 5.49727511405945 17.546724900603294
leaf_count=20 25 24 27 28 19 32 41 19 21 36 124
internal_value=9.36841e-05 0.0385663 0.0582809 0.0728877 -0.0449084 -0.0411636 0.0836915 -0.0462255 -0.0460926 -0.0464373 -0.045941
internal_weight=76.8696 41.4412 33.2256 26.8997 35.4284 8.21562 19.9043 32.428 29.3161 8.95949 20.3566
internal_count=416 172 120 93 244 52 65 225 206 61 145
is_linear=0
shrinkage=0.05


Tree=45
num_leaves=12
num_cat=0
split_feature=3 1 6 5 3 1 4 6 0 3 1
split_gain=41.583 32.6448 4.47451 3.66962 1.33899 2.21806 0.478786 0.145771 0.0038082 0.001071 0.000251156
threshold=11.177330450439454 -210.38328828124995 211.38549618320619 142.77099236641223 -4.0306384948730463 -224.69103740234371 -143.50763358778622 140.58778625954213 21.500000000000004 -15.625757135009763 -189.65668450927731
decision_type=2 2 2 2 2 2 2 2 2 2 2
left_child=2 8 4 6 9 -6 -3 -8 -2 10 -1
right_child=1 3 -4 -5 5 -7 7 -9 -10 -11 -12
leaf_value=-0.046152017802141648 -0.045890842546097814 0.06509871322834998 0.01986953783496908 0.033845030913176567 -0.047003332101329641 0.0080134078093825126 0.08583910314144369 0.074941777637246756 -0.048024647946989962 -0.046626112077934108 -0.045756175613560782
leaf_weight=5.1564437672495869 5.4184606522321683 8.9104920178651827 3.2866771966218939 7.8202233612537375 4.0503541082143784 3.3448959141969672 6.0643846094608325 6.2126900255680084 3.4049444198608398 5.4053440243005779 17.979376874864101
leaf_count=36 39 30 14 27 26 17 20 20 20 36 131
internal_value=0.000100712 0.0375011 -0.0359724 0.0631171 -0.0410796 -0.0221191 0.0739213 0.0803246 -0.0467143 -0.0459924 -0.0458444
internal_weight=77.0543 37.8312 39.2231 29.0078 35.9364 7.39525 21.1876 12.2771 8.82341 28.5412 23.1358
internal_count=416 156 260 97 246 43 70 40 59 203 167
is_linear=0
shrinkage=0.05


Tree=46
num_leaves=11
num_cat=0
split_feature=2 6 5 2 3 5 6 4 4 4
split_gain=92.9399 0.592384 0.248801 0.070832 0.00373689 0.00101641 0.000745456 0.000668001 9.02949e-05 0.000113014
threshold=49.649756927490238 -40.954198473282439 284.38549618320621 117.88450424194335 -74.812816375732424 -146.7519083969465 211.38549618320619 -122.19465648854954 143.70992366412224 -162.04198473282435
decision_type=2 2 2 2 2 2 2 2 2 2
left_child=2 -2 5 -3 -5 8 7 -7 9 -1
right_child=1 3 -4 4 -6 6 -8 -9 -10 -11
leaf_value=-0.045585099802468262 0.059826584973111246 0.082049013267993007 -0.031043861608700887 0.076447909057605679 0.074832077907120084 -0.045367824354409975 -0.046562878480497422 -0.046026837191852965 -0.045696228492543962 -0.045310812617711735
leaf_weight=5.214833244681361 6.1046829521656063 6.1720489263534573 3.1286235600709906 7.1650106310844457 7.1476009190082497 6.1870607957243964 3.7053353711962691 10.159438796341419 2.7146938294172278 13.41922475397587
leaf_count=39 21 20 20 23 23 48 25 73 20 104
internal_value=-0.000471173 0.0734976 -0.0446395 0.0775717 0.075641 -0.0456669 -0.0459226 -0.0457774 -0.0454268 -0.0453876
internal_weight=71.1186 26.5893 44.5292 20.4847 14.3126 41.4006 20.0518 16.3465 21.3488 18.6341
internal_count=416 87 329 66 46 309 146 121 163 143
is_linear=0
shrinkage=0.05


Tree=47
num_leaves=12
num_cat=0
split_feature=0 4 0 3 0 3 4 6 1 3 2
split_gain=53.6503 7.36816 6.29406 6.498 3.43689 6.33953 0.202128 0.159697 0.0044362 0.00528203 0.000361342
threshold=23.500000000000004 -337.8320610687021 17.500000000000004 5.98310994873047 33.500000000000007 4.3562499206542968 -18.996183206106931 -39.217557251908431 -204.87303316040035 5.98310994873047 11.976993804931643
decision_type=2 2 2 2 2 2 2 2 2 2 2
left_child=2 -2 7 -4 5 6 -3 -1 9 -6 -10
right_child=1 4 3 -5 8 -7 -8 -9 10 -11 -12
leaf_value=0.086491958335978808 0.022160730609717638 -0.045919939983300517 -0.013799879441110352 0.063884367454951699 -0.045754381540181216 0.038382132333057553 -0.029554888381043139 0.075913274075276399 -0.045876716551980133 -0.04824926764107073 -0.045450751029243737
leaf_weight=7.5858288109302521 5.9500536471605292 4.9523537307977668 4.6372504532337171 6.4166541993618011 4.4985955879092199 3.8528943061828604 3.0481543242931357 6.7350310534238833 7.426931828260428 4.0148205459117889 15.102603383362291
leaf_count=25 27 36 20 21 33 18 22 22 54 23 115
internal_value=0.000658458 -0.0299807 0.0596389 0.0312949 -0.0372131 -0.0143096 -0.0396849 0.0815169 -0.0459586 -0.0469309 -0.0455912
internal_weight=74.2212 48.8464 25.3748 11.0539 42.8964 11.8534 8.00051 14.3209 31.043 8.51342 22.5295
internal_count=416 328 88 41 301 76 58 47 225 56 169
is_linear=0
shrinkage=0.05


Tree=48
num_leaves=11
num_cat=0
split_feature=6 0 1 4 2 5 3 4 3 0
split_gain=82.3236 1.4053 0.0813013 0.0467564 0.000406553 0.000647503 0.00062891 7.52478e-05 3.55082e-05 1.50905e-05
threshold=-237.16412213740452 65.500000000000014 -157.12307525024411 -92.499999999999943 62.728083496093753 -146.7519083969465 9.6749689086914064 -162.04198473282435 -59.877786419677726 30.500000000000004
decision_type=2 2 2 2 2 2 2 2 2 2
left_child=2 4 3 -1 5 7 -7 -2 9 -6
right_child=1 -3 -4 -5 8 6 -8 -9 -10 -11
leaf_value=0.074105212511076046 -0.044654497646998102 -0.0047511747557062532 0.084122437832455238 0.079830575850752372 -0.044279633733775393 -0.045304454843848853 -0.044670079515882775 -0.044368071098480455 -0.044152368916744837 -0.044437219168404048
leaf_weight=6.1791789531707773 3.0119905546307555 2.3469960093498221 6.5237664580345145 8.4319579601287842 2.3952650129795074 6.312908895313746 10.251171097159384 9.6061300933361036 2.331729978322981 4.1536044403910637
leaf_count=20 26 15 21 27 22 50 89 87 22 37
internal_value=-0.000479876 -0.0423008 0.0794814 0.0774093 -0.0446161 -0.0447063 -0.0449119 -0.0444364 -0.0443199 -0.0443796
internal_weight=61.5447 40.4098 21.1349 14.6111 38.0628 29.1822 16.5641 12.6181 8.8806 6.54887
internal_count=416 348 68 47 333 252 139 113 81 59
is_linear=0
shrinkage=0.05


Tree=49
num_leaves=14
num_cat=0
split_feature=1 0 2 3 4 4 2 3 3 3 5 1 2
split_gain=48.3267 23.0073 10.802 3.2901 0.278873 0.206302 0.099868 0.0014745 0.00184024 0.00158025 6.48739e-05 6.02278e-05 3.26438e-05
threshold=-205.65833130493161 18.500000000000004 18.947711938476562 11.177330450439454 196.18320610687016 -81.423664122137396 -2.7784710266113297 -14.560337396240234 14.827290881347658 46.342167333984385 -33.874045801526698 -161.18962677001949 27.954698583984374
decision_type=2 2 2 2 2 2 2 2 2 2 2 2 2
left_child=1 5 3 6 7 -1 -3 10 -9 -10 12 -12 -2
right_child=4 2 -4 -5 -6 -7 -8 8 9 -11 11 -13 -14
leaf_value=-0.030217114039434674 -0.045715680345399204 0.083305986664888823 -0.0043542452060829325 0.039076877081086155 -0.029577139207283394 -0.046878715402145568 0.075960966794894808 -0.047228122461823036 -0.045444421721628672 -0.046811174220287535 -0.045536933576653615 -0.045270268373727156 -0.045523116926406683
leaf_weight=3.0023404061794281 3.8221399635076541 7.3055644333362606 6.3243802636861792 7.1300286054611197 2.8942843675613394 4.8736613094806662 12.626178130507471 3.3267876654863349 6.8153362050652486 3.0664342269301414 4.5293017998337746 3.9762849658727664 5.1884934231638908
leaf_count=20 28 24 27 28 19 32 41 21 52 20 34 31 39
internal_value=8.56175e-05 0.0363428 0.0544769 0.0682259 -0.0444144 -0.0405273 0.0786531 -0.0458121 -0.046211 -0.0458685 -0.0455113 -0.0454123 -0.0456048
internal_weight=74.8812 41.2622 33.3862 27.0618 33.6191 7.876 19.9317 30.7248 13.2086 9.88177 17.5162 8.50559 9.01063
internal_count=416 172 120 93 244 52 65 225 93 72 132 65 67
is_linear=0
shrinkage=0.05


Tree=50
num_leaves=13
num_cat=0
split_feature=3 1 6 1 4 3 1 6 5 0 3 1
split_gain=37.7054 29.2047 4.22092 2.48413 1.44168 1.32283 2.27558 0.392969 0.0929738 0.00339648 0.00101737 0.000269737
threshold=11.177330450439454 -205.65833130493161 211.38549618320619 -211.80065566406248 -184.17175572519082 -4.0306384948730463 -224.53661139526363 214.09541984732837 53.385496183206101 21.500000000000004 -15.625757135009763 -189.24727602539056
decision_type=2 2 2 2 2 2 2 2 2 2 2 2
left_child=2 3 5 9 -3 10 -7 8 -6 -2 11 -1
right_child=1 4 -4 -5 7 6 -8 -9 -10 -11 -12 -13
leaf_value=-0.045750215633336581 -0.045425414848593471 0.043499095974108483 0.018682363068696538 0.0054335149456484592 0.072326249592922359 -0.046579890981911218 0.0098943964964832761 0.060786665561698511 0.080568917844833263 -0.047535648458139013 -0.046210486019411467 -0.045332921065260962
leaf_weight=5.0293318629264858 4.9634010940790159 6.0589946508407584 3.3041750788688651 3.2699376344680777 7.6559799909591728 4.0150626599788666 3.209662899374961 6.1113153696060172 6.1847748458385468 3.0963548719882965 5.1428905129432705 16.836363181471825
leaf_count=37 38 20 14 14 25 27 16 20 20 19 36 130
internal_value=0.000102406 0.0356766 -0.0352854 -0.0313234 0.0648599 -0.0404943 -0.0214906 0.0713468 0.0760095 -0.0462361 -0.0455777 -0.0454289
internal_weight=74.8782 37.3408 37.5375 11.3297 26.0111 34.2333 7.22473 19.9521 13.8408 8.05976 27.0086 21.8657
internal_count=416 156 260 71 85 246 43 65 45 57 203 167
is_linear=0
shrinkage=0.05


Tree=51
num_leaves=11
num_cat=0
split_feature=2 5 6 5 0 5 5 3 4 4
split_gain=84.247 0.559223 0.289385 0.0482048 0.00660828 0.00131249 0.0006897 0.000690772 9.64653e-05 0.000122565
threshold=49.649756927490238 -33.874045801526698 296.66030534351154 184.47709923664124 32.500000000000007 -146.7519083969465 240.37022900763358 7.2556281311035145 -203.83969465648852 143.70992366412224
decision_type=2 2 2 2 2 2 2 2 2 2
left_child=2 -2 5 4 -3 8 7 -7 -1 -10
right_child=1 3 -4 -5 -6 6 -8 -9 9 -11
leaf_value=-0.045309051752390986 0.056679643932710522 0.07318922474668664 -0.028679902235855342 0.077232722094765435 0.070972772323363964 -0.045833436787860254 -0.046318400470844845 -0.045189929950689676 -0.044946796888057167 -0.045321824042998532
leaf_weight=3.0791363343596485 6.382959961891177 6.1798888742923754 2.7905509173870078 6.4550721645355216 7.3774123787879944 8.0834121853113228 3.0563333407044402 8.6147449761629087 14.153764083981516 2.5749641954898825
leaf_count=24 22 20 19 21 24 60 21 69 116 20
internal_value=-0.000546127 0.0695662 -0.0442418 0.0736764 0.0719831 -0.0453395 -0.0456278 -0.0455014 -0.0450519 -0.0450045
internal_weight=68.7482 26.3953 42.3529 20.0124 13.5573 39.5624 19.7545 16.6982 19.8079 16.7287
internal_count=416 87 329 65 44 310 150 129 160 136
is_linear=0
shrinkage=0.05


Tree=52
num_leaves=11
num_cat=0
split_feature=0 4 3 1 3 6 0 0 1 3
split_gain=48.1686 7.51754 5.63746 3.46497 7.65233 0.320792 0.237342 0.0220328 0.00542193 0.00115045
threshold=23.500000000000004 -366.98854961832046 3.6834792541503929 -218.92340560302731 4.3562499206542968 25.931297709923708 32.500000000000007 16.500000000000004 -200.65325273437495 -14.560337396240234
decision_type=2 2 2 2 2 2 2 2 2 2
left_child=2 -2 -1 4 6 7 -3 -4 -5 -10
right_child=1 3 5 8 -6 -7 -8 -9 9 -11
leaf_value=0.01511862720471728 0.024580435821630185 -0.02739629095169472 0.07226788388662711 -0.04714699388370016 0.049938513811221726 0.060447261516789211 -0.045479356710201702 0.076391288569742088 -0.045057290999689054 -0.045752669984510878
leaf_weight=6.2352264970541027 5.716192200779914 2.7123291566967946 6.453845143318178 4.9652164801955214 3.3778947591781607 6.1192977130413047 5.4820705652236938 6.5049286782741547 14.809736222028734 9.9401025697588938
leaf_count=26 25 20 21 32 15 20 42 21 119 75
internal_value=0.000786613 -0.0291596 0.0563928 -0.0365998 -0.013389 0.0698823 -0.0394939 0.0743377 -0.0456391 -0.0453366
internal_weight=72.3168 47.0035 25.3133 41.2873 11.5723 19.0781 8.1944 12.9588 29.7151 24.7498
internal_count=416 328 88 303 77 62 62 42 226 194
is_linear=0
shrinkage=0.05


Tree=53
num_leaves=11
num_cat=0
split_feature=0 5 1 6 0 2 5 3 0 0
split_gain=74.6753 1.10772 0.0253308 0.00221786 0.0004055 0.000428963 0.000401501 0.000122146 0.000272058 3.08254e-05
threshold=72.500000000000014 -71.656488549618402 -176.89319545898431 -87.507633587786231 35.500000000000007 62.728083496093753 -141.74427480916026 5.98310994873047 22.500000000000004 21.500000000000004
decision_type=2 2 2 2 2 2 2 2 2 2
left_child=3 2 -2 -1 7 6 -6 8 -5 -9
right_child=1 -3 -4 4 5 -7 -8 9 -10 -11
leaf_value=-0.045740943900558231 0.079169628638613571 0.049397828792971103 0.075206570514811735 -0.044739175304539816 -0.044180710129148808 -0.044013717749199002 -0.044800259078779436 -0.043908530432301106 -0.044120751552829365 -0.044122766564186511
leaf_weight=2.9930529817938796 6.1228488683700606 4.7473702281713477 11.807945162057877 2.3055549710989016 3.6106188669800767 3.6084367930889121 9.4835973456501961 4.3488950431346884 7.7779953852295876 2.7349970936775208
leaf_count=25 20 20 38 20 34 35 81 43 74 26
internal_value=-0.000516842 0.0708738 0.0765598 -0.0444363 -0.044321 -0.0444964 -0.0446294 -0.0441504 -0.0442622 -0.0439912
internal_weight=59.5413 22.6782 17.9308 36.8631 33.8701 16.7027 13.0942 17.1674 10.0836 7.08389
internal_count=416 78 58 338 313 150 115 163 94 69
is_linear=0
shrinkage=0.05


Tree=54
num_leaves=13
num_cat=0
split_feature=1 0 3 6 2 5 0 3 2 6 3 0
split_gain=43.9922 20.3235 11.3708 14.0152 0.435715 0.315166 0.307951 0.00170394 0.000871463 0.000931797 0.000478304 0.000136866
threshold=-205.65833130493161 17.500000000000004 4.3562499206542968 130.53816793893131 11.976993804931643 400.01908396946567 30.500000000000004 46.342167333984385 11.976993804931643 -159.93129770992365 14.827290881347658 27.500000000000004
decision_type=2 2 2 2 2 2 2 2 2 2 2 2
left_child=1 10 4 -4 6 7 -3 8 9 -2 -1 -10
right_child=5 2 3 -5 -6 -7 -8 -9 11 -11 -12 -13
leaf_value=-0.046763308833332073 -0.045058412650764761 0.085246629065973856 -0.02957824699041349 0.07787672050061345 0.060573436584642495 -0.027250898842174048 0.070764755142446678 -0.046571592023547298 -0.044773384829925066 -0.046159417377307353 -0.045905203359131216 -0.045173080765598318
leaf_weight=2.9649487659335128 3.1010374799370766 5.9780243635177639 7.7770152837038022 4.9760896563529968 6.0957200378179541 2.5922999233007422 9.5117278695106489 2.9861453995108596 2.4805468320846584 5.0529838874936193 3.5903688296675682 15.683084666728972
leaf_count=20 25 20 37 18 20 18 31 20 21 36 26 124
internal_value=5.17306e-05 0.0343808 0.0497817 0.0123492 0.0718974 -0.0439614 0.0763538 -0.0454397 -0.0453113 -0.0457407 -0.0462933 -0.0451185
internal_weight=72.79 40.8939 34.3386 12.7531 21.5855 31.8961 15.4898 29.3038 26.3177 8.15402 6.55532 18.1636
internal_count=416 172 126 55 71 244 51 226 206 61 46 145
is_linear=0
shrinkage=0.05


Tree=55
num_leaves=13
num_cat=0
split_feature=3 1 5 3 1 0 3 1 3 0 1 4
split_gain=34.2433 33.0064 4.63626 1.88837 3.57488 0.552243 0.187854 0.00453181 0.00218351 0.000762934 0.000257488 7.03242e-05
threshold=4.8925510925292981 -210.38328828124995 142.77099236641223 -8.0193784606933587 -224.53661139526363 34.500000000000007 25.965117004394532 -218.92340560302731 -16.110582971191402 20.500000000000004 -189.24727602539056 -241.8129770992366
decision_type=2 2 2 2 2 2 2 2 2 2 2 2
left_child=3 7 5 8 -5 -3 -7 9 10 -2 -1 -12
right_child=1 2 -4 4 -6 6 -8 -9 -10 -11 11 -13
leaf_value=-0.04537747494200231 -0.045052039114858437 0.055744837653704839 0.024957825069706795 -0.046537890398687588 0.0236431541638242 0.080037571784791525 0.06915052902703718 -0.047752790289868063 -0.046274775271010704 -0.046092862519172217 -0.044705620635540289 -0.044990804608393976
leaf_weight=4.379737161099917 4.3334303125739098 5.7572801411151948 8.1820671260356885 4.2339958325028419 3.1753465980291358 6.8829148113727596 9.3374354243278486 3.1155231371521932 4.3324054554104796 2.9655263125896454 2.5813643559813562 13.296556614339346
leaf_count=34 35 20 28 29 15 23 31 19 31 21 22 108
internal_value=8.56846e-05 0.0305867 0.057087 -0.0385886 -0.0164611 0.0690483 0.0737703 -0.0461564 -0.045256 -0.0454749 -0.0450381 -0.0449444
internal_weight=72.5736 40.5742 30.1597 31.9994 7.40934 21.9776 16.2204 10.4145 24.5901 7.29896 20.2577 15.8779
internal_count=416 177 102 239 44 74 54 75 195 56 164 130
is_linear=0
shrinkage=0.05


Tree=56
num_leaves=9
num_cat=0
split_feature=2 5 2 0 2 5 6 4
split_gain=76.7548 2.34089 0.0154744 0.0101536 0.00222078 0.00136334 0.00088354 0.00011431
threshold=62.728083496093753 336.51908396946573 115.80514010009767 30.500000000000004 40.78043687744141 -146.7519083969465 211.38549618320619 -194.63358778625943
decision_type=2 2 2 2 2 2 2 2
left_child=1 4 -2 -4 5 7 -7 -1
right_child=2 -3 3 -5 -6 6 -8 -9
leaf_value=-0.045002517591271045 0.071448288909779487 0.0020521775016616051 0.070117736515669882 0.067678138805199878 -0.04648965194732909 -0.045161147575265778 -0.046024628399778805 -0.044666961238059459
leaf_weight=3.0598062649369231 6.7256611287593868 2.8184636980295172 7.0176927447319057 10.873527795076368 2.8214991986751548 14.361905090510851 3.7324273809790602 14.88303156942129
leaf_count=25 22 17 23 36 21 117 27 128
internal_value=-0.000599559 -0.0419474 0.0694037 0.0686351 -0.0451388 -0.045033 -0.0453393 -0.0447242
internal_weight=66.294 41.6771 24.6169 17.8912 38.8587 36.0372 18.0943 17.9428
internal_count=416 335 81 59 318 297 144 153
is_linear=0
shrinkage=0.05


Tree=57
num_leaves=12
num_cat=0
