#pragma once
#include <cstdarg>
namespace Eloquent {
    namespace ML {
        namespace Port {
            class XGBClassifier {
                public:
                    /**
                    * Predict class for features vector
                    */
                    int predict(float *x) {
                        float votes[3] = { 0.0f };
                        // tree #1
                        if (x[34] <= 3091.0) {
                            if (x[22] <= 28.0) {
                                votes[0] += 0.1195065;
                            }

                            else {
                                if (x[6] <= 4.9065995) {
                                    votes[0] += 0.04260497;
                                }

                                else {
                                    votes[0] += -0.073886625;
                                }
                            }
                        }

                        else {
                            votes[0] += 0.14264387;
                        }

                        // tree #2
                        if (x[34] <= 2987.0) {
                            if (x[36] <= 2837.0) {
                                if (x[3] <= 523.26) {
                                    if (x[0] <= 1346.8) {
                                        votes[1] += -0.06332586;
                                    }

                                    else {
                                        votes[1] += 0.04260497;
                                    }
                                }

                                else {
                                    if (x[20] <= 0.8521093) {
                                        votes[1] += 0.04260497;
                                    }

                                    else {
                                        votes[1] += 0.14356017;
                                    }
                                }
                            }

                            else {
                                votes[1] += -0.06538674;
                            }
                        }

                        else {
                            if (x[29] <= 0.96) {
                                if (x[19] <= 0.83905005) {
                                    votes[1] += -0.00019633444;
                                }

                                else {
                                    votes[1] += -0.073521934;
                                }
                            }

                            else {
                                votes[1] += 0.04107737;
                            }
                        }

                        // tree #3
                        if (x[27] <= 0.75) {
                            if (x[26] <= 1.0) {
                                if (x[40] <= 4.31) {
                                    votes[2] += 0.073121764;
                                }

                                else {
                                    if (x[32] <= -0.41) {
                                        votes[2] += -0.07145451;
                                    }

                                    else {
                                        votes[2] += 0.01679575;
                                    }
                                }
                            }

                            else {
                                votes[2] += 0.11443509;
                            }
                        }

                        else {
                            if (x[22] <= 478.0) {
                                votes[2] += -0.056433756;
                            }

                            else {
                                if (x[1] <= 921.32) {
                                    if (x[1] <= 239.02) {
                                        votes[2] += 0.09672693;
                                    }

                                    else {
                                        votes[2] += 0.00039422145;
                                    }
                                }

                                else {
                                    votes[2] += 0.14399143;
                                }
                            }
                        }

                        // tree #4
                        if (x[34] <= 3091.0) {
                            if (x[6] <= 5.0094) {
                                votes[0] += 0.10184201;
                            }

                            else {
                                if (x[16] <= 1.2854732) {
                                    votes[0] += 0.0004218368;
                                }

                                else {
                                    votes[0] += -0.0712395;
                                }
                            }
                        }

                        else {
                            votes[0] += 0.1255593;
                        }

                        // tree #5
                        if (x[18] <= 3.194426) {
                            if (x[27] <= 0.61) {
                                if (x[1] <= 1920.28) {
                                    if (x[0] <= 1462.44) {
                                        votes[1] += 0.12087413;
                                    }

                                    else {
                                        votes[1] += -0.041727614;
                                    }
                                }

                                else {
                                    votes[1] += -0.04693974;
                                }
                            }

                            else {
                                if (x[0] <= 1320.34) {
                                    if (x[14] <= 972.30054) {
                                        votes[1] += -0.045759965;
                                    }

                                    else {
                                        votes[1] += 0.07833948;
                                    }
                                }

                                else {
                                    votes[1] += -0.06841208;
                                }
                            }
                        }

                        else {
                            if (x[1] <= 135.28) {
                                if (x[0] <= 711.62) {
                                    votes[1] += -0.041099664;
                                }

                                else {
                                    votes[1] += 0.07628491;
                                }
                            }

                            else {
                                if (x[8] <= -1.0501999) {
                                    votes[1] += -1.3242189e-05;
                                }

                                else {
                                    votes[1] += -0.070495985;
                                }
                            }
                        }

                        // tree #6
                        if (x[27] <= 0.75) {
                            if (x[4] <= 2155.34) {
                                if (x[40] <= 4.31) {
                                    votes[2] += 0.06695969;
                                }

                                else {
                                    if (x[17] <= 1.6039815) {
                                        votes[2] += 0.00031283076;
                                    }

                                    else {
                                        votes[2] += -0.07078756;
                                    }
                                }
                            }

                            else {
                                if (x[0] <= 1261.04) {
                                    votes[2] += -0.04036365;
                                }

                                else {
                                    votes[2] += 0.11659711;
                                }
                            }
                        }

                        else {
                            if (x[22] <= 478.0) {
                                votes[2] += -0.05414064;
                            }

                            else {
                                if (x[1] <= 831.62) {
                                    if (x[0] <= 1327.86) {
                                        votes[2] += -0.00188284;
                                    }

                                    else {
                                        votes[2] += 0.0812268;
                                    }
                                }

                                else {
                                    votes[2] += 0.12635463;
                                }
                            }
                        }

                        // tree #7
                        if (x[34] <= 3091.0) {
                            if (x[22] <= 28.0) {
                                votes[0] += 0.10339957;
                            }

                            else {
                                if (x[17] <= 7.4068255) {
                                    votes[0] += -0.0690602;
                                }

                                else {
                                    votes[0] += 0.03868717;
                                }
                            }
                        }

                        else {
                            votes[0] += 0.11229531;
                        }

                        // tree #8
                        if (x[34] <= 2987.0) {
                            if (x[36] <= 2837.0) {
                                if (x[3] <= 523.26) {
                                    if (x[5] <= 2.2536) {
                                        votes[1] += 0.00032664894;
                                    }

                                    else {
                                        votes[1] += -0.059902705;
                                    }
                                }

                                else {
                                    if (x[18] <= 1.1654805) {
                                        votes[1] += 0.035806455;
                                    }

                                    else {
                                        votes[1] += 0.11354196;
                                    }
                                }
                            }

                            else {
                                votes[1] += -0.0610567;
                            }
                        }

                        else {
                            if (x[18] <= 1.3117048) {
                                if (x[9] <= -0.32639998) {
                                    votes[1] += 0.037966;
                                }

                                else {
                                    votes[1] += -0.044656;
                                }
                            }

                            else {
                                if (x[34] <= 2992.0) {
                                    votes[1] += -0.009601376;
                                }

                                else {
                                    votes[1] += -0.06860422;
                                }
                            }
                        }

                        // tree #9
                        if (x[27] <= 0.75) {
                            if (x[8] <= 0.6862) {
                                if (x[40] <= 4.31) {
                                    votes[2] += 0.062048573;
                                }

                                else {
                                    if (x[4] <= 2019.2) {
                                        votes[2] += -0.068407066;
                                    }

                                    else {
                                        votes[2] += -0.016554367;
                                    }
                                }
                            }

                            else {
                                votes[2] += 0.09467492;
                            }
                        }

                        else {
                            if (x[22] <= 478.0) {
                                votes[2] += -0.047797076;
                            }

                            else {
                                if (x[38] <= 7.86) {
                                    votes[2] += -0.0049674767;
                                }

                                else {
                                    if (x[8] <= -0.8992001) {
                                        votes[2] += 0.034305576;
                                    }

                                    else {
                                        votes[2] += 0.11408146;
                                    }
                                }
                            }
                        }

                        // tree #10
                        if (x[34] <= 3091.0) {
                            if (x[6] <= 5.0094) {
                                if (x[4] <= 193.44) {
                                    votes[0] += 0.09260979;
                                }

                                else {
                                    votes[0] += 0.03082021;
                                }
                            }

                            else {
                                if (x[10] <= 0.9605999) {
                                    votes[0] += -0.06686505;
                                }

                                else {
                                    votes[0] += 0.03935642;
                                }
                            }
                        }

                        else {
                            votes[0] += 0.10173463;
                        }

                        // tree #11
                        if (x[34] <= 2987.0) {
                            if (x[36] <= 2837.0) {
                                if (x[2] <= 547.1) {
                                    if (x[2] <= 3.92) {
                                        votes[1] += 0.038810488;
                                    }

                                    else {
                                        votes[1] += -0.057234164;
                                    }
                                }

                                else {
                                    if (x[20] <= 0.70688623) {
                                        votes[1] += -0.0047014644;
                                    }

                                    else {
                                        votes[1] += 0.101538435;
                                    }
                                }
                            }

                            else {
                                votes[1] += -0.05817938;
                            }
                        }

                        else {
                            if (x[29] <= 0.96) {
                                if (x[19] <= 0.83905005) {
                                    votes[1] += 0.0014516161;
                                }

                                else {
                                    votes[1] += -0.06671242;
                                }
                            }

                            else {
                                votes[1] += 0.034949273;
                            }
                        }

                        // tree #12
                        if (x[5] <= 4.4237995) {
                            if (x[20] <= 0.33971688) {
                                votes[2] += 0.033623103;
                            }

                            else {
                                votes[2] += -0.06644571;
                            }
                        }

                        else {
                            if (x[31] <= -3.38) {
                                votes[2] += -0.06290997;
                            }

                            else {
                                if (x[1] <= 213.44) {
                                    votes[2] += -0.03626231;
                                }

                                else {
                                    if (x[15] <= 1441.4164) {
                                        votes[2] += 0.106161475;
                                    }

                                    else {
                                        votes[2] += -0.0010336778;
                                    }
                                }
                            }
                        }

                        // tree #13
                        if (x[11] <= 421.09814) {
                            if (x[6] <= 4.7132) {
                                votes[0] += 0.08279021;
                            }

                            else {
                                if (x[37] <= 3037.0) {
                                    votes[0] += -0.065070264;
                                }

                                else {
                                    votes[0] += 0.057963308;
                                }
                            }
                        }

                        else {
                            if (x[5] <= 4.0802) {
                                if (x[7] <= 2.0282) {
                                    votes[0] += 0.030468503;
                                }

                                else {
                                    votes[0] += 0.09513735;
                                }
                            }

                            else {
                                votes[0] += -0.037148472;
                            }
                        }

                        // tree #14
                        if (x[11] <= 159.09074) {
                            if (x[40] <= 4.36) {
                                if (x[8] <= -0.33019996) {
                                    votes[1] += -0.053725183;
                                }

                                else {
                                    votes[1] += 0.036557768;
                                }
                            }

                            else {
                                if (x[7] <= 5.0418) {
                                    votes[1] += 0.09477827;
                                }

                                else {
                                    votes[1] += -0.036024243;
                                }
                            }
                        }

                        else {
                            if (x[31] <= -3.54) {
                                if (x[18] <= 3.194426) {
                                    votes[1] += 0.08156038;
                                }

                                else {
                                    votes[1] += -0.05510428;
                                }
                            }

                            else {
                                if (x[33] <= 1848.0) {
                                    if (x[28] <= -4.78) {
                                        votes[1] += -0.059483696;
                                    }

                                    else {
                                        votes[1] += 0.052176505;
                                    }
                                }

                                else {
                                    votes[1] += -0.064763695;
                                }
                            }
                        }

                        // tree #15
                        if (x[0] <= 1311.76) {
                            if (x[7] <= -0.0946) {
                                votes[2] += 0.015277061;
                            }

                            else {
                                votes[2] += -0.06466064;
                            }
                        }

                        else {
                            if (x[5] <= 4.3588) {
                                if (x[7] <= 1.3222001) {
                                    votes[2] += 0.035583105;
                                }

                                else {
                                    votes[2] += -0.06068933;
                                }
                            }

                            else {
                                if (x[31] <= -4.07) {
                                    votes[2] += -0.04042394;
                                }

                                else {
                                    if (x[17] <= 6.3669662) {
                                        votes[2] += 0.09720923;
                                    }

                                    else {
                                        votes[2] += 0.03015483;
                                    }
                                }
                            }
                        }

                        // tree #16
                        if (x[5] <= 3.6973999) {
                            if (x[28] <= -0.58) {
                                if (x[7] <= 1.6111999) {
                                    votes[0] += -0.03843531;
                                }

                                else {
                                    votes[0] += 0.08935785;
                                }
                            }

                            else {
                                votes[0] += -0.05164451;
                            }
                        }

                        else {
                            if (x[0] <= 768.04) {
                                votes[0] += 0.0589287;
                            }

                            else {
                                votes[0] += -0.063071035;
                            }
                        }

                        // tree #17
                        if (x[34] <= 2987.0) {
                            if (x[36] <= 2837.0) {
                                if (x[3] <= 523.26) {
                                    if (x[5] <= 1.875) {
                                        votes[1] += 0.03507327;
                                    }

                                    else {
                                        votes[1] += -0.056652542;
                                    }
                                }

                                else {
                                    if (x[20] <= 0.70688623) {
                                        votes[1] += -0.0044324184;
                                    }

                                    else {
                                        votes[1] += 0.089129396;
                                    }
                                }
                            }

                            else {
                                votes[1] += -0.05486701;
                            }
                        }

                        else {
                            if (x[29] <= 0.96) {
                                if (x[19] <= 0.83905005) {
                                    votes[1] += 0.0017059138;
                                }

                                else {
                                    votes[1] += -0.06304106;
                                }
                            }

                            else {
                                votes[1] += 0.031127611;
                            }
                        }

                        // tree #18
                        if (x[5] <= 4.4237995) {
                            if (x[27] <= 1.01) {
                                votes[2] += -0.06296202;
                            }

                            else {
                                votes[2] += -0.00059370085;
                            }
                        }

                        else {
                            if (x[31] <= -3.38) {
                                votes[2] += -0.059326362;
                            }

                            else {
                                if (x[0] <= 1283.62) {
                                    if (x[1] <= 1443.88) {
                                        votes[2] += -0.044608414;
                                    }

                                    else {
                                        votes[2] += 0.057478327;
                                    }
                                }

                                else {
                                    if (x[15] <= 1406.2513) {
                                        votes[2] += 0.090208486;
                                    }

                                    else {
                                        votes[2] += 0.027309826;
                                    }
                                }
                            }
                        }

                        // tree #19
                        if (x[5] <= 3.6973999) {
                            if (x[7] <= 1.7507999) {
                                votes[0] += -0.05011208;
                            }

                            else {
                                if (x[28] <= -0.58) {
                                    votes[0] += 0.08377313;
                                }

                                else {
                                    votes[0] += -0.036935207;
                                }
                            }
                        }

                        else {
                            if (x[11] <= 478.09) {
                                votes[0] += -0.061709877;
                            }

                            else {
                                votes[0] += 0.03141694;
                            }
                        }

                        // tree #20
                        if (x[18] <= 3.3991392) {
                            if (x[0] <= 1320.34) {
                                if (x[2] <= 474.38) {
                                    votes[1] += -0.044360753;
                                }

                                else {
                                    if (x[27] <= 1.94) {
                                        votes[1] += 0.08067506;
                                    }

                                    else {
                                        votes[1] += -0.034108516;
                                    }
                                }
                            }

                            else {
                                if (x[12] <= 298.2341) {
                                    votes[1] += 0.070515;
                                }

                                else {
                                    if (x[12] <= 1390.0775) {
                                        votes[1] += -0.05589666;
                                    }

                                    else {
                                        votes[1] += 0.016285585;
                                    }
                                }
                            }
                        }

                        else {
                            votes[1] += -0.06094004;
                        }

                        // tree #21
                        if (x[5] <= 4.521) {
                            if (x[27] <= 1.18) {
                                votes[2] += -0.061380256;
                            }

                            else {
                                votes[2] += -0.00046332026;
                            }
                        }

                        else {
                            if (x[31] <= -3.38) {
                                votes[2] += -0.057849605;
                            }

                            else {
                                if (x[1] <= 213.44) {
                                    votes[2] += -0.036049884;
                                }

                                else {
                                    if (x[18] <= 0.8454107) {
                                        votes[2] += -0.007268458;
                                    }

                                    else {
                                        votes[2] += 0.08300134;
                                    }
                                }
                            }
                        }

                        // tree #22
                        if (x[7] <= 3.0008) {
                            if (x[6] <= 5.9104) {
                                votes[0] += 0.025433648;
                            }

                            else {
                                votes[0] += -0.060189158;
                            }
                        }

                        else {
                            if (x[38] <= 11.1) {
                                if (x[28] <= -0.61) {
                                    votes[0] += 0.07816377;
                                }

                                else {
                                    votes[0] += -0.04185678;
                                }
                            }

                            else {
                                if (x[3] <= 1728.76) {
                                    votes[0] += -0.046574425;
                                }

                                else {
                                    votes[0] += 0.00030106408;
                                }
                            }
                        }

                        // tree #23
                        if (x[34] <= 2992.0) {
                            if (x[36] <= 2846.0) {
                                if (x[2] <= 547.1) {
                                    if (x[14] <= 7.1700764) {
                                        votes[1] += 0.0033259396;
                                    }

                                    else {
                                        votes[1] += -0.05041815;
                                    }
                                }

                                else {
                                    if (x[20] <= 0.70688623) {
                                        votes[1] += -0.0388933;
                                    }

                                    else {
                                        votes[1] += 0.07784791;
                                    }
                                }
                            }

                            else {
                                votes[1] += -0.052431818;
                            }
                        }

                        else {
                            if (x[29] <= 0.96) {
                                votes[1] += -0.060149875;
                            }

                            else {
                                votes[1] += 0.0269126;
                            }
                        }

                        // tree #24
                        if (x[27] <= -0.04) {
                            votes[2] += -0.05979199;
                        }

                        else {
                            if (x[0] <= 1311.76) {
                                if (x[27] <= 1.94) {
                                    votes[2] += -0.05762474;
                                }

                                else {
                                    votes[2] += 0.050840504;
                                }
                            }

                            else {
                                if (x[31] <= -4.07) {
                                    votes[2] += -0.035638142;
                                }

                                else {
                                    if (x[10] <= -0.35740003) {
                                        votes[2] += 0.012349386;
                                    }

                                    else {
                                        votes[2] += 0.08050179;
                                    }
                                }
                            }
                        }

                        // tree #25
                        if (x[5] <= 4.0802) {
                            if (x[7] <= 1.7507999) {
                                votes[0] += -0.050355423;
                            }

                            else {
                                if (x[9] <= 0.9181999) {
                                    if (x[22] <= 1307.0) {
                                        votes[0] += 0.07573937;
                                    }

                                    else {
                                        votes[0] += -0.032665752;
                                    }
                                }

                                else {
                                    votes[0] += -0.03626265;
                                }
                            }
                        }

                        else {
                            votes[0] += -0.059065152;
                        }

                        // tree #26
                        if (x[34] <= 2987.0) {
                            if (x[13] <= 594.9041) {
                                if (x[28] <= 5.23) {
                                    votes[1] += -0.05315994;
                                }

                                else {
                                    votes[1] += 0.03357986;
                                }
                            }

                            else {
                                if (x[20] <= 0.54640734) {
                                    votes[1] += -0.046891615;
                                }

                                else {
                                    if (x[8] <= 0.681) {
                                        votes[1] += 0.07409959;
                                    }

                                    else {
                                        votes[1] += -0.0018080904;
                                    }
                                }
                            }
                        }

                        else {
                            if (x[29] <= 0.5) {
                                if (x[19] <= 0.83905005) {
                                    votes[1] += 0.0016321242;
                                }

                                else {
                                    votes[1] += -0.058828365;
                                }
                            }

                            else {
                                votes[1] += 0.0391102;
                            }
                        }

                        // tree #27
                        if (x[5] <= 4.4237995) {
                            if (x[42] <= 0.5) {
                                votes[2] += -3.8993094e-05;
                            }

                            else {
                                votes[2] += -0.05882392;
                            }
                        }

                        else {
                            if (x[31] <= -3.38) {
                                votes[2] += -0.05469064;
                            }

                            else {
                                if (x[0] <= 1283.62) {
                                    if (x[1] <= 1443.88) {
                                        votes[2] += -0.04032139;
                                    }

                                    else {
                                        votes[2] += 0.04818969;
                                    }
                                }

                                else {
                                    if (x[17] <= 6.3669662) {
                                        votes[2] += 0.076081686;
                                    }

                                    else {
                                        votes[2] += 0.019913701;
                                    }
                                }
                            }
                        }

                        // tree #28
                        if (x[5] <= 4.0802) {
                            if (x[40] <= 7.19) {
                                votes[0] += -0.04782198;
                            }

                            else {
                                if (x[9] <= 0.9181999) {
                                    if (x[9] <= 0.74079996) {
                                        votes[0] += 0.071306996;
                                    }

                                    else {
                                        votes[0] += 0.0193092;
                                    }
                                }

                                else {
                                    votes[0] += -0.04177298;
                                }
                            }
                        }

                        else {
                            votes[0] += -0.057850488;
                        }

                        // tree #29
                        if (x[34] <= 2992.0) {
                            if (x[36] <= 2846.0) {
                                if (x[3] <= 523.26) {
                                    if (x[3] <= 3.26) {
                                        votes[1] += 0.031537697;
                                    }

                                    else {
                                        votes[1] += -0.051088013;
                                    }
                                }

                                else {
                                    if (x[20] <= 0.70688623) {
                                        votes[1] += -0.015709063;
                                    }

                                    else {
                                        votes[1] += 0.07229792;
                                    }
                                }
                            }

                            else {
                                votes[1] += -0.050711166;
                            }
                        }

                        else {
                            if (x[14] <= 1361.853) {
                                votes[1] += -0.058075435;
                            }

                            else {
                                votes[1] += 0.0068170703;
                            }
                        }

                        // tree #30
                        if (x[27] <= -0.04) {
                            votes[2] += -0.05741161;
                        }

                        else {
                            if (x[0] <= 1311.76) {
                                if (x[27] <= 1.94) {
                                    votes[2] += -0.055002566;
                                }

                                else {
                                    votes[2] += 0.045778688;
                                }
                            }

                            else {
                                if (x[31] <= -4.07) {
                                    votes[2] += -0.03245548;
                                }

                                else {
                                    if (x[10] <= -0.35740003) {
                                        votes[2] += 0.010578336;
                                    }

                                    else {
                                        votes[2] += 0.07318708;
                                    }
                                }
                            }
                        }

                        // tree #31
                        if (x[5] <= 3.6973999) {
                            if (x[28] <= -0.58) {
                                if (x[9] <= 0.74079996) {
                                    votes[0] += 0.06911041;
                                }

                                else {
                                    votes[0] += 0.011399944;
                                }
                            }

                            else {
                                votes[0] += -0.04341415;
                            }
                        }

                        else {
                            if (x[2] <= 474.38) {
                                votes[0] += 0.026756752;
                            }

                            else {
                                votes[0] += -0.05706925;
                            }
                        }

                        // tree #32
                        if (x[34] <= 2987.0) {
                            if (x[36] <= 2837.0) {
                                if (x[3] <= 523.26) {
                                    if (x[5] <= 1.875) {
                                        votes[1] += 0.030438596;
                                    }

                                    else {
                                        votes[1] += -0.049024563;
                                    }
                                }

                                else {
                                    if (x[20] <= 0.70688623) {
                                        votes[1] += -0.003210717;
                                    }

                                    else {
                                        votes[1] += 0.06941446;
                                    }
                                }
                            }

                            else {
                                votes[1] += -0.048734646;
                            }
                        }

                        else {
                            if (x[29] <= 0.96) {
                                if (x[19] <= 0.83905005) {
                                    votes[1] += 0.0013902088;
                                }

                                else {
                                    votes[1] += -0.056619603;
                                }
                            }

                            else {
                                votes[1] += 0.025086392;
                            }
                        }

                        // tree #33
                        if (x[27] <= 0.75) {
                            if (x[26] <= 1.0) {
                                if (x[23] <= 1.0) {
                                    if (x[21] <= 0.6214069) {
                                        votes[2] += 0.016598446;
                                    }

                                    else {
                                        votes[2] += -0.057162702;
                                    }
                                }

                                else {
                                    if (x[5] <= 3.2683997) {
                                        votes[2] += -0.02959009;
                                    }

                                    else {
                                        votes[2] += 0.047237143;
                                    }
                                }
                            }

                            else {
                                votes[2] += 0.055417955;
                            }
                        }

                        else {
                            if (x[22] <= 478.0) {
                                votes[2] += -0.038850363;
                            }

                            else {
                                if (x[0] <= 1320.34) {
                                    if (x[0] <= 1257.78) {
                                        votes[2] += 0.04356823;
                                    }

                                    else {
                                        votes[2] += -0.0054601845;
                                    }
                                }

                                else {
                                    votes[2] += 0.06922283;
                                }
                            }
                        }

                        // tree #34
                        if (x[5] <= 4.0802) {
                            if (x[28] <= -0.58) {
                                if (x[7] <= 1.6111999) {
                                    votes[0] += -0.037211303;
                                }

                                else {
                                    votes[0] += 0.06695019;
                                }
                            }

                            else {
                                votes[0] += -0.043900546;
                            }
                        }

                        else {
                            votes[0] += -0.055723976;
                        }

                        // tree #35
                        if (x[34] <= 2992.0) {
                            if (x[14] <= 957.2626) {
                                if (x[18] <= 2.5446196) {
                                    if (x[27] <= 0.06) {
                                        votes[1] += 0.05008034;
                                    }

                                    else {
                                        votes[1] += -0.007506562;
                                    }
                                }

                                else {
                                    votes[1] += -0.050790317;
                                }
                            }

                            else {
                                if (x[20] <= 0.73232895) {
                                    if (x[10] <= 0.00859999) {
                                        votes[1] += 0.0027617244;
                                    }

                                    else {
                                        votes[1] += -0.040242467;
                                    }
                                }

                                else {
                                    if (x[32] <= -0.98) {
                                        votes[1] += 0.06667326;
                                    }

                                    else {
                                        votes[1] += 0.018876834;
                                    }
                                }
                            }
                        }

                        else {
                            if (x[29] <= 0.96) {
                                votes[1] += -0.055707444;
                            }

                            else {
                                votes[1] += 0.03580762;
                            }
                        }

                        // tree #36
                        if (x[27] <= -0.04) {
                            votes[2] += -0.055515528;
                        }

                        else {
                            if (x[31] <= -3.38) {
                                votes[2] += -0.050042536;
                            }

                            else {
                                if (x[38] <= 7.96) {
                                    votes[2] += -0.046245854;
                                }

                                else {
                                    if (x[31] <= -3.23) {
                                        votes[2] += 0.023841495;
                                    }

                                    else {
                                        votes[2] += 0.067174904;
                                    }
                                }
                            }
                        }

                        // tree #37
                        if (x[34] <= 3091.0) {
                            if (x[6] <= 5.0094) {
                                votes[0] += 0.04986411;
                            }

                            else {
                                if (x[0] <= 1142.96) {
                                    votes[0] += 0.02589199;
                                }

                                else {
                                    votes[0] += -0.055600304;
                                }
                            }
                        }

                        else {
                            votes[0] += 0.06344543;
                        }

                        // tree #38
                        if (x[34] <= 2992.0) {
                            if (x[36] <= 2846.0) {
                                if (x[3] <= 523.26) {
                                    if (x[33] <= 1428.0) {
                                        votes[1] += -0.04306231;
                                    }

                                    else {
                                        votes[1] += 0.0025970812;
                                    }
                                }

                                else {
                                    if (x[20] <= 0.70688623) {
                                        votes[1] += -0.013045817;
                                    }

                                    else {
                                        votes[1] += 0.06394627;
                                    }
                                }
                            }

                            else {
                                votes[1] += -0.047463704;
                            }
                        }

                        else {
                            if (x[29] <= 0.5) {
                                votes[1] += -0.054773327;
                            }

                            else {
                                votes[1] += 0.022157509;
                            }
                        }

                        // tree #39
                        if (x[27] <= 0.75) {
                            if (x[4] <= 2155.34) {
                                if (x[40] <= 4.31) {
                                    votes[2] += 0.031574424;
                                }

                                else {
                                    votes[2] += -0.055345625;
                                }
                            }

                            else {
                                if (x[10] <= -0.146) {
                                    votes[2] += -0.012046945;
                                }

                                else {
                                    votes[2] += 0.05441488;
                                }
                            }
                        }

                        else {
                            if (x[22] <= 478.0) {
                                votes[2] += -0.03415947;
                            }

                            else {
                                if (x[31] <= -0.6) {
                                    if (x[42] <= 0.44) {
                                        votes[2] += 0.016414933;
                                    }

                                    else {
                                        votes[2] += 0.06418872;
                                    }
                                }

                                else {
                                    votes[2] += 0.013130434;
                                }
                            }
                        }

                        // tree #40
                        if (x[5] <= 3.6973999) {
                            if (x[40] <= 7.19) {
                                votes[0] += -0.038835004;
                            }

                            else {
                                if (x[9] <= 0.74079996) {
                                    votes[0] += 0.06264826;
                                }

                                else {
                                    votes[0] += -0.012745567;
                                }
                            }
                        }

                        else {
                            if (x[0] <= 1142.96) {
                                votes[0] += 0.02292208;
                            }

                            else {
                                votes[0] += -0.054497343;
                            }
                        }

                        // tree #41
                        if (x[18] <= 3.194426) {
                            if (x[20] <= 0.88736826) {
                                if (x[31] <= -0.61) {
                                    votes[1] += -0.05208962;
                                }

                                else {
                                    votes[1] += 0.036477298;
                                }
                            }

                            else {
                                if (x[1] <= 1920.28) {
                                    if (x[0] <= 1462.2) {
                                        votes[1] += 0.062373847;
                                    }

                                    else {
                                        votes[1] += -0.014799279;
                                    }
                                }

                                else {
                                    votes[1] += -0.03919966;
                                }
                            }
                        }

                        else {
                            if (x[11] <= 67.52762) {
                                votes[1] += 0.038773436;
                            }

                            else {
                                votes[1] += -0.05384038;
                            }
                        }

                        // tree #42
                        if (x[0] <= 1311.76) {
                            if (x[27] <= 1.94) {
                                votes[2] += -0.054430187;
                            }

                            else {
                                votes[2] += 0.03699433;
                            }
                        }

                        else {
                            if (x[27] <= -0.04) {
                                votes[2] += -0.04874189;
                            }

                            else {
                                if (x[31] <= -3.23) {
                                    if (x[2] <= 1734.3) {
                                        votes[2] += -0.032550763;
                                    }

                                    else {
                                        votes[2] += 0.038970355;
                                    }
                                }

                                else {
                                    votes[2] += 0.06362793;
                                }
                            }
                        }

                        // tree #43
                        if (x[34] <= 3091.0) {
                            if (x[22] <= 28.0) {
                                votes[0] += 0.05119108;
                            }

                            else {
                                if (x[6] <= 4.9065995) {
                                    votes[0] += 0.018194895;
                                }

                                else {
                                    votes[0] += -0.054175027;
                                }
                            }
                        }

                        else {
                            votes[0] += 0.05988683;
                        }

                        // tree #44
                        if (x[34] <= 2992.0) {
                            if (x[36] <= 2846.0) {
                                if (x[6] <= 4.6532) {
                                    votes[1] += -0.040718105;
                                }

                                else {
                                    if (x[20] <= 0.8373631) {
                                        votes[1] += -0.0013382116;
                                    }

                                    else {
                                        votes[1] += 0.05966273;
                                    }
                                }
                            }

                            else {
                                votes[1] += -0.04261134;
                            }
                        }

                        else {
                            if (x[29] <= 0.96) {
                                votes[1] += -0.05303315;
                            }

                            else {
                                votes[1] += 0.029299745;
                            }
                        }

                        // tree #45
                        if (x[5] <= 4.4237995) {
                            if (x[20] <= 0.33971688) {
                                votes[2] += 0.019889649;
                            }

                            else {
                                votes[2] += -0.053261768;
                            }
                        }

                        else {
                            if (x[31] <= -3.38) {
                                votes[2] += -0.04713826;
                            }

                            else {
                                if (x[0] <= 1283.62) {
                                    if (x[1] <= 1443.88) {
                                        votes[2] += -0.034146942;
                                    }

                                    else {
                                        votes[2] += 0.035495818;
                                    }
                                }

                                else {
                                    if (x[10] <= -0.35740003) {
                                        votes[2] += 0.01441295;
                                    }

                                    else {
                                        votes[2] += 0.06141263;
                                    }
                                }
                            }
                        }

                        // tree #46
                        if (x[34] <= 3091.0) {
                            if (x[6] <= 5.0094) {
                                votes[0] += 0.04682039;
                            }

                            else {
                                if (x[0] <= 1142.96) {
                                    votes[0] += 0.023046335;
                                }

                                else {
                                    votes[0] += -0.053438704;
                                }
                            }
                        }

                        else {
                            votes[0] += 0.058445062;
                        }

                        // tree #47
                        if (x[34] <= 2992.0) {
                            if (x[36] <= 2846.0) {
                                if (x[6] <= 4.6532) {
                                    votes[1] += -0.03866264;
                                }

                                else {
                                    if (x[20] <= 0.8373631) {
                                        votes[1] += -0.0018055345;
                                    }

                                    else {
                                        votes[1] += 0.058495987;
                                    }
                                }
                            }

                            else {
                                votes[1] += -0.044066515;
                            }
                        }

                        else {
                            if (x[29] <= 0.96) {
                                votes[1] += -0.052541167;
                            }

                            else {
                                votes[1] += 0.009908723;
                            }
                        }

                        // tree #48
                        if (x[27] <= -0.04) {
                            votes[2] += -0.052437313;
                        }

                        else {
                            if (x[0] <= 1311.76) {
                                if (x[7] <= -0.0946) {
                                    votes[2] += 0.033988968;
                                }

                                else {
                                    votes[2] += -0.0494518;
                                }
                            }

                            else {
                                if (x[31] <= -3.23) {
                                    if (x[1] <= 1380.04) {
                                        votes[2] += -0.015689988;
                                    }

                                    else {
                                        votes[2] += 0.03179064;
                                    }
                                }

                                else {
                                    votes[2] += 0.06033501;
                                }
                            }
                        }

                        // tree #49
                        if (x[5] <= 4.0802) {
                            if (x[28] <= -0.58) {
                                if (x[7] <= 1.6111999) {
                                    votes[0] += -0.03255781;
                                }

                                else {
                                    votes[0] += 0.058512397;
                                }
                            }

                            else {
                                votes[0] += -0.04117275;
                            }
                        }

                        else {
                            votes[0] += -0.05215747;
                        }

                        // tree #50
                        if (x[34] <= 2987.0) {
                            if (x[36] <= 2837.0) {
                                if (x[3] <= 523.26) {
                                    if (x[5] <= 1.875) {
                                        votes[1] += 0.026916325;
                                    }

                                    else {
                                        votes[1] += -0.042561766;
                                    }
                                }

                                else {
                                    if (x[40] <= 4.34) {
                                        votes[1] += 0.015181673;
                                    }

                                    else {
                                        votes[1] += 0.058290523;
                                    }
                                }
                            }

                            else {
                                votes[1] += -0.043385647;
                            }
                        }

                        else {
                            if (x[29] <= 0.96) {
                                if (x[31] <= -0.92) {
                                    votes[1] += -0.051759657;
                                }

                                else {
                                    votes[1] += -0.005455892;
                                }
                            }

                            else {
                                votes[1] += 0.018136373;
                            }
                        }

                        // tree #51
                        if (x[27] <= 0.75) {
                            if (x[26] <= 1.0) {
                                if (x[23] <= 1.0) {
                                    if (x[2] <= 2166.84) {
                                        votes[2] += -0.052533902;
                                    }

                                    else {
                                        votes[2] += 0.012144472;
                                    }
                                }

                                else {
                                    votes[2] += 0.011146131;
                                }
                            }

                            else {
                                votes[2] += 0.039287932;
                            }
                        }

                        else {
                            if (x[7] <= 2.7762) {
                                if (x[38] <= 8.25) {
                                    votes[2] += 0.0044579;
                                }

                                else {
                                    votes[2] += 0.058363;
                                }
                            }

                            else {
                                votes[2] += -0.0151766185;
                            }
                        }

                        // tree #52
                        if (x[5] <= 3.6973999) {
                            if (x[7] <= 1.7507999) {
                                votes[0] += -0.034583136;
                            }

                            else {
                                if (x[28] <= -0.71) {
                                    votes[0] += 0.05698498;
                                }

                                else {
                                    votes[0] += -0.009441059;
                                }
                            }
                        }

                        else {
                            if (x[14] <= 385.53647) {
                                votes[0] += 0.009393149;
                            }

                            else {
                                votes[0] += -0.05170504;
                            }
                        }

                        // tree #53
                        if (x[34] <= 2987.0) {
                            if (x[32] <= -0.92) {
                                if (x[3] <= 523.26) {
                                    votes[1] += -0.034621075;
                                }

                                else {
                                    if (x[40] <= 4.39) {
                                        votes[1] += 0.0039517134;
                                    }

                                    else {
                                        votes[1] += 0.057162862;
                                    }
                                }
                            }

                            else {
                                if (x[27] <= -0.04) {
                                    votes[1] += 0.03129151;
                                }

                                else {
                                    votes[1] += -0.042462748;
                                }
                            }
                        }

                        else {
                            if (x[18] <= 0.9789842) {
                                votes[1] += 0.019290488;
                            }

                            else {
                                if (x[31] <= -0.85) {
                                    votes[1] += -0.051412415;
                                }

                                else {
                                    votes[1] += -0.005099088;
                                }
                            }
                        }

                        // tree #54
                        if (x[27] <= -0.04) {
                            votes[2] += -0.051101457;
                        }

                        else {
                            if (x[0] <= 1311.76) {
                                if (x[39] <= 19.64) {
                                    votes[2] += -0.047565326;
                                }

                                else {
                                    votes[2] += 0.024558274;
                                }
                            }

                            else {
                                if (x[31] <= -3.23) {
                                    if (x[2] <= 1734.3) {
                                        votes[2] += -0.030188385;
                                    }

                                    else {
                                        votes[2] += 0.032865204;
                                    }
                                }

                                else {
                                    votes[2] += 0.057969995;
                                }
                            }
                        }

                        // tree #55
                        if (x[5] <= 4.0802) {
                            if (x[28] <= -0.58) {
                                if (x[7] <= 1.6111999) {
                                    votes[0] += -0.029376253;
                                }

                                else {
                                    votes[0] += 0.056359824;
                                }
                            }

                            else {
                                votes[0] += -0.03928172;
                            }
                        }

                        else {
                            votes[0] += -0.05102464;
                        }

                        // tree #56
                        if (x[18] <= 3.194426) {
                            if (x[36] <= 2846.0) {
                                if (x[40] <= 4.36) {
                                    if (x[8] <= -0.33019996) {
                                        votes[1] += -0.039516423;
                                    }

                                    else {
                                        votes[1] += 0.01441508;
                                    }
                                }

                                else {
                                    if (x[1] <= 1824.42) {
                                        votes[1] += 0.052402657;
                                    }

                                    else {
                                        votes[1] += -0.009642533;
                                    }
                                }
                            }

                            else {
                                votes[1] += -0.043876506;
                            }
                        }

                        else {
                            if (x[11] <= 111.528336) {
                                votes[1] += 0.015304172;
                            }

                            else {
                                votes[1] += -0.04981679;
                            }
                        }

                        // tree #57
                        if (x[0] <= 1311.76) {
                            if (x[27] <= 1.9) {
                                votes[2] += -0.05090056;
                            }

                            else {
                                votes[2] += 0.01821146;
                            }
                        }

                        else {
                            if (x[27] <= -0.04) {
                                votes[2] += -0.04422733;
                            }

                            else {
                                if (x[31] <= -3.23) {
                                    if (x[2] <= 1734.3) {
                                        votes[2] += -0.029077748;
                                    }

                                    else {
                                        votes[2] += 0.031564336;
                                    }
                                }

                                else {
                                    votes[2] += 0.056738596;
                                }
                            }
                        }

                        // tree #58
                        if (x[5] <= 4.0802) {
                            if (x[28] <= -0.58) {
                                if (x[7] <= 1.6111999) {
                                    votes[0] += -0.02919856;
                                }

                                else {
                                    votes[0] += 0.055393584;
                                }
                            }

                            else {
                                votes[0] += -0.03827305;
                            }
                        }

                        else {
                            votes[0] += -0.050250184;
                        }

                        // tree #59
                        if (x[34] <= 2992.0) {
                            if (x[13] <= 606.1475) {
                                if (x[5] <= 1.875) {
                                    votes[1] += 0.02430557;
                                }

                                else {
                                    votes[1] += -0.041750666;
                                }
                            }

                            else {
                                if (x[36] <= 2837.0) {
                                    if (x[20] <= 0.70688623) {
                                        votes[1] += -0.008163552;
                                    }

                                    else {
                                        votes[1] += 0.054933585;
                                    }
                                }

                                else {
                                    if (x[11] <= 204.39687) {
                                        votes[1] += -0.006763304;
                                    }

                                    else {
                                        votes[1] += -0.031020993;
                                    }
                                }
                            }
                        }

                        else {
                            if (x[29] <= 0.96) {
                                votes[1] += -0.049883492;
                            }

                            else {
                                votes[1] += 0.016135626;
                            }
                        }

                        // tree #60
                        if (x[27] <= 0.75) {
                            if (x[4] <= 2001.34) {
                                if (x[40] <= 4.31) {
                                    votes[2] += 0.017709214;
                                }

                                else {
                                    votes[2] += -0.050851632;
                                }
                            }

                            else {
                                if (x[37] <= 2951.0) {
                                    votes[2] += 0.04376013;
                                }

                                else {
                                    votes[2] += -0.020376619;
                                }
                            }
                        }

                        else {
                            if (x[0] <= 1320.34) {
                                if (x[37] <= 2963.0) {
                                    votes[2] += -0.02921567;
                                }

                                else {
                                    votes[2] += 0.019254277;
                                }
                            }

                            else {
                                votes[2] += 0.05432995;
                            }
                        }

                        // tree #61
                        if (x[5] <= 3.944) {
                            if (x[7] <= 1.7507999) {
                                votes[0] += -0.03688253;
                            }

                            else {
                                if (x[28] <= -0.61) {
                                    votes[0] += 0.05394138;
                                }

                                else {
                                    votes[0] += -0.01560453;
                                }
                            }
                        }

                        else {
                            votes[0] += -0.049756285;
                        }

                        // tree #62
                        if (x[34] <= 2992.0) {
                            if (x[14] <= 957.2626) {
                                if (x[6] <= 8.282599) {
                                    votes[1] += -0.042742502;
                                }

                                else {
                                    votes[1] += 0.019293582;
                                }
                            }

                            else {
                                if (x[20] <= 0.73232895) {
                                    votes[1] += -0.03360667;
                                }

                                else {
                                    if (x[30] <= -0.97) {
                                        votes[1] += 0.05360933;
                                    }

                                    else {
                                        votes[1] += 0.013689975;
                                    }
                                }
                            }
                        }

                        else {
                            if (x[12] <= 1452.489) {
                                votes[1] += -0.049470827;
                            }

                            else {
                                votes[1] += 0.01132952;
                            }
                        }

                        // tree #63
                        if (x[0] <= 1311.76) {
                            if (x[27] <= 1.9) {
                                votes[2] += -0.049823362;
                            }

                            else {
                                votes[2] += 0.017086448;
                            }
                        }

                        else {
                            if (x[27] <= -0.04) {
                                votes[2] += -0.04103223;
                            }

                            else {
                                if (x[9] <= -0.64159995) {
                                    votes[2] += 0.00803367;
                                }

                                else {
                                    votes[2] += 0.052769214;
                                }
                            }
                        }

                        // tree #64
                        if (x[5] <= 4.0802) {
                            if (x[28] <= -0.58) {
                                if (x[7] <= 1.9029999) {
                                    votes[0] += -0.018652104;
                                }

                                else {
                                    votes[0] += 0.05335256;
                                }
                            }

                            else {
                                votes[0] += -0.037104957;
                            }
                        }

                        else {
                            votes[0] += -0.04906945;
                        }

                        // tree #65
                        if (x[34] <= 2992.0) {
                            if (x[36] <= 2846.0) {
                                if (x[6] <= 4.6532) {
                                    votes[1] += -0.030174902;
                                }

                                else {
                                    if (x[40] <= 4.34) {
                                        votes[1] += -0.016419308;
                                    }

                                    else {
                                        votes[1] += 0.050533485;
                                    }
                                }
                            }

                            else {
                                votes[1] += -0.036703613;
                            }
                        }

                        else {
                            if (x[18] <= 1.0390751) {
                                votes[1] += 0.013927151;
                            }

                            else {
                                votes[1] += -0.04891816;
                            }
                        }

                        // tree #66
                        if (x[0] <= 1311.76) {
                            if (x[27] <= 1.9) {
                                votes[2] += -0.04899349;
                            }

                            else {
                                votes[2] += 0.016314683;
                            }
                        }

                        else {
                            if (x[27] <= -0.04) {
                                votes[2] += -0.04095771;
                            }

                            else {
                                if (x[31] <= -3.23) {
                                    votes[2] += 0.0009586994;
                                }

                                else {
                                    votes[2] += 0.05359466;
                                }
                            }
                        }

                        // tree #67
                        if (x[5] <= 4.0802) {
                            if (x[7] <= 1.7507999) {
                                votes[0] += -0.035638224;
                            }

                            else {
                                if (x[28] <= -0.71) {
                                    votes[0] += 0.05223728;
                                }

                                else {
                                    votes[0] += -0.01092896;
                                }
                            }
                        }

                        else {
                            votes[0] += -0.048536412;
                        }

                        // tree #68
                        if (x[34] <= 2992.0) {
                            if (x[36] <= 2846.0) {
                                if (x[6] <= 4.6532) {
                                    votes[1] += -0.0320607;
                                }

                                else {
                                    if (x[20] <= 0.8373631) {
                                        votes[1] += -0.0012157836;
                                    }

                                    else {
                                        votes[1] += 0.051187474;
                                    }
                                }
                            }

                            else {
                                votes[1] += -0.03594719;
                            }
                        }

                        else {
                            if (x[29] <= 0.96) {
                                votes[1] += -0.04820331;
                            }

                            else {
                                votes[1] += 0.016174039;
                            }
                        }

                        // tree #69
                        if (x[5] <= 4.521) {
                            if (x[6] <= 10.0646) {
                                votes[2] += -0.04837819;
                            }

                            else {
                                votes[2] += -0.007595221;
                            }
                        }

                        else {
                            if (x[31] <= -3.38) {
                                votes[2] += -0.041739468;
                            }

                            else {
                                if (x[0] <= 1283.62) {
                                    votes[2] += 0.0003794102;
                                }

                                else {
                                    votes[2] += 0.05050812;
                                }
                            }
                        }

                        // tree #70
                        if (x[5] <= 4.0802) {
                            if (x[28] <= -0.58) {
                                if (x[7] <= 2.0282) {
                                    votes[0] += -0.00994895;
                                }

                                else {
                                    votes[0] += 0.051767487;
                                }
                            }

                            else {
                                votes[0] += -0.03624422;
                            }
                        }

                        else {
                            votes[0] += -0.048057303;
                        }

                        // tree #71
                        if (x[34] <= 2992.0) {
                            if (x[14] <= 939.3361) {
                                if (x[6] <= 8.282599) {
                                    votes[1] += -0.039455857;
                                }

                                else {
                                    votes[1] += 0.02265163;
                                }
                            }

                            else {
                                if (x[13] <= 1234.989) {
                                    votes[1] += 0.049993265;
                                }

                                else {
                                    if (x[12] <= 1018.18) {
                                        votes[1] += -0.027940432;
                                    }

                                    else {
                                        votes[1] += 0.010450694;
                                    }
                                }
                            }
                        }

                        else {
                            if (x[29] <= 0.96) {
                                votes[1] += -0.047242068;
                            }

                            else {
                                votes[1] += 0.015295731;
                            }
                        }

                        // tree #72
                        if (x[0] <= 1318.58) {
                            if (x[27] <= 1.49) {
                                votes[2] += -0.047622513;
                            }

                            else {
                                votes[2] += -0.00022164662;
                            }
                        }

                        else {
                            if (x[27] <= -0.04) {
                                votes[2] += -0.040034104;
                            }

                            else {
                                if (x[43] <= 3.68) {
                                    votes[2] += 0.05024117;
                                }

                                else {
                                    votes[2] += 0.004209936;
                                }
                            }
                        }

                        // tree #73
                        if (x[5] <= 3.6973999) {
                            if (x[9] <= 0.74079996) {
                                if (x[11] <= 87.63283) {
                                    votes[0] += -0.0112092225;
                                }

                                else {
                                    votes[0] += 0.050058406;
                                }
                            }

                            else {
                                votes[0] += -0.017773664;
                            }
                        }

                        else {
                            if (x[37] <= 1817.0) {
                                votes[0] += -0.0022257632;
                            }

                            else {
                                votes[0] += -0.047660664;
                            }
                        }

                        // tree #74
                        if (x[18] <= 3.3991392) {
                            if (x[27] <= 0.61) {
                                if (x[35] <= 2903.0) {
                                    if (x[14] <= 910.90643) {
                                        votes[1] += 0.006883034;
                                    }

                                    else {
                                        votes[1] += 0.04984227;
                                    }
                                }

                                else {
                                    votes[1] += -0.027299304;
                                }
                            }

                            else {
                                if (x[0] <= 1320.34) {
                                    if (x[17] <= 4.961917) {
                                        votes[1] += 0.031359877;
                                    }

                                    else {
                                        votes[1] += -0.0102725485;
                                    }
                                }

                                else {
                                    votes[1] += -0.04278333;
                                }
                            }
                        }

                        else {
                            votes[1] += -0.042836413;
                        }

                        // tree #75
                        if (x[0] <= 1311.76) {
                            if (x[43] <= 4.28) {
                                votes[2] += -0.046912547;
                            }

                            else {
                                votes[2] += -0.0009384242;
                            }
                        }

                        else {
                            if (x[27] <= -0.51) {
                                votes[2] += -0.03663022;
                            }

                            else {
                                if (x[31] <= -3.23) {
                                    votes[2] += 0.004198457;
                                }

                                else {
                                    votes[2] += 0.05114582;
                                }
                            }
                        }

                        // tree #76
                        if (x[34] <= 3091.0) {
                            if (x[6] <= 5.0094) {
                                votes[0] += 0.033812854;
                            }

                            else {
                                if (x[41] <= 0.55) {
                                    votes[0] += -0.011062896;
                                }

                                else {
                                    votes[0] += -0.04828222;
                                }
                            }
                        }

                        else {
                            votes[0] += 0.048404414;
                        }

                        // tree #77
                        if (x[34] <= 2992.0) {
                            if (x[36] <= 2837.0) {
                                if (x[3] <= 523.26) {
                                    if (x[38] <= 7.5) {
                                        votes[1] += -0.003655277;
                                    }

                                    else {
                                        votes[1] += -0.02812036;
                                    }
                                }

                                else {
                                    if (x[40] <= 4.57) {
                                        votes[1] += 0.00896607;
                                    }

                                    else {
                                        votes[1] += 0.048767462;
                                    }
                                }
                            }

                            else {
                                votes[1] += -0.02860947;
                            }
                        }

                        else {
                            if (x[29] <= 0.96) {
                                votes[1] += -0.046596464;
                            }

                            else {
                                votes[1] += 0.013332525;
                            }
                        }

                        // tree #78
                        if (x[0] <= 1311.76) {
                            if (x[27] <= 1.63) {
                                votes[2] += -0.04679478;
                            }

                            else {
                                votes[2] += 0.009386365;
                            }
                        }

                        else {
                            if (x[27] <= -0.04) {
                                votes[2] += -0.038013224;
                            }

                            else {
                                if (x[31] <= -3.23) {
                                    votes[2] += 0.0014901926;
                                }

                                else {
                                    votes[2] += 0.05060863;
                                }
                            }
                        }

                        // tree #79
                        if (x[7] <= 2.8874) {
                            votes[0] += -0.04510816;
                        }

                        else {
                            if (x[18] <= 2.4559243) {
                                votes[0] += -0.015569262;
                            }

                            else {
                                if (x[38] <= 10.7) {
                                    votes[0] += 0.04809339;
                                }

                                else {
                                    votes[0] += 0.00958663;
                                }
                            }
                        }

                        // tree #80
                        if (x[34] <= 2992.0) {
                            if (x[13] <= 606.1475) {
                                if (x[10] <= 0.27) {
                                    votes[1] += -0.007470257;
                                }

                                else {
                                    votes[1] += -0.030394275;
                                }
                            }

                            else {
                                if (x[36] <= 2846.0) {
                                    if (x[40] <= 4.34) {
                                        votes[1] += -0.003100043;
                                    }

                                    else {
                                        votes[1] += 0.04945306;
                                    }
                                }

                                else {
                                    votes[1] += -0.028486172;
                                }
                            }
                        }

                        else {
                            if (x[29] <= 0.96) {
                                votes[1] += -0.04603112;
                            }

                            else {
                                votes[1] += 0.012690986;
                            }
                        }

                        // tree #81
                        if (x[27] <= -0.04) {
                            votes[2] += -0.04588776;
                        }

                        else {
                            if (x[0] <= 1320.34) {
                                if (x[1] <= 1786.96) {
                                    votes[2] += -0.040179767;
                                }

                                else {
                                    votes[2] += 0.020909302;
                                }
                            }

                            else {
                                if (x[31] <= -3.23) {
                                    votes[2] += 0.00045322976;
                                }

                                else {
                                    votes[2] += 0.04962238;
                                }
                            }
                        }

                        // tree #82
                        if (x[5] <= 4.0802) {
                            if (x[28] <= -0.58) {
                                if (x[7] <= 2.5979998) {
                                    votes[0] += -0.004851908;
                                }

                                else {
                                    votes[0] += 0.04882026;
                                }
                            }

                            else {
                                votes[0] += -0.033171177;
                            }
                        }

                        else {
                            votes[0] += -0.045850392;
                        }

                        // tree #83
                        if (x[34] <= 3021.0) {
                            if (x[14] <= 957.2626) {
                                if (x[38] <= 8.2) {
                                    votes[1] += 0.009589839;
                                }

                                else {
                                    votes[1] += -0.038732838;
                                }
                            }

                            else {
                                if (x[20] <= 0.76502174) {
                                    votes[1] += -0.018741889;
                                }

                                else {
                                    votes[1] += 0.047429156;
                                }
                            }
                        }

                        else {
                            votes[1] += -0.04457444;
                        }

                        // tree #84
                        if (x[27] <= -0.04) {
                            votes[2] += -0.044782206;
                        }

                        else {
                            if (x[31] <= -3.38) {
                                votes[2] += -0.036163744;
                            }

                            else {
                                if (x[38] <= 8.2) {
                                    votes[2] += -0.017679716;
                                }

                                else {
                                    if (x[5] <= 4.7966) {
                                        votes[2] += 0.014116569;
                                    }

                                    else {
                                        votes[2] += 0.04882818;
                                    }
                                }
                            }
                        }

                        // tree #85
